tree
version=v4
num_class=1
num_tree_per_iteration=1
label_index=0
max_feature_idx=57
objective=lambdarank
feature_names=Column_0 Column_1 Column_2 Column_3 Column_4 Column_5 Column_6 Column_7 Column_8 Column_9 Column_10 Column_11 Column_12 Column_13 Column_14 Column_15 Column_16 Column_17 Column_18 Column_19 Column_20 Column_21 Column_22 Column_23 Column_24 Column_25 Column_26 Column_27 Column_28 Column_29 Column_30 Column_31 Column_32 Column_33 Column_34 Column_35 Column_36 Column_37 Column_38 Column_39 Column_40 Column_41 Column_42 Column_43 Column_44 Column_45 Column_46 Column_47 Column_48 Column_49 Column_50 Column_51 Column_52 Column_53 Column_54 Column_55 Column_56 Column_57
feature_infos=[0.51200000000000001:0.99099999999999999] [0.025000000000000001:0.98299999999999998] [0:1] [0:1] [0:0.872] [0:0.97899999999999998] none [0:0.74399999999999999] [0:0.5] [0:0.875] [0:0.48799999999999999] [0:0.83099999999999996] [0:0.82199999999999995] [0:0.90800000000000003] [0:1] [0:240] [0.12:1] [0:1] [1:4] [0:22] [0:11] [0:1] [0:1] [0:1] [0:1] [0:2.25] none [0.050000000000000003:1] [-1:89.900000000000006] [0:5] [0:2] [1:8] [0:1] [0:150] [0.29999999999999999:1] [0:1] [0:0.92200000000000004] [0:5] [0:1] none [0.029999999999999999:0.94999999999999996] [0:1] [0:1] [0.40000000000000002:1] none [12:178] [0:0.68400000000000005] [0:0.46999999999999997] [0:1] [1:16.899999999999999] [0.10000000000000001:1] [0.08438979834318161:0.92685294151306152] [0.53030258417129517:0.76022875308990479] [0.53743904829025269:0.82657742500305176] [0.013770317658782005:0.9653162956237793] [0.058954440057277679:0.89785820245742798] [0.035999999999999997:1] [0:2]
tree_sizes=3565 3520 3615 3603 3629 3632 3626 3636 3618 3627 3623 3625 3631 3634 3624 3614 3606 3617 3627 3615 3628 3616 3633 3622 3625 3614 3622 3631 3634 3641 3636 3634 3647 3647 3619 3626 3654 3631 3643 3636 3632 3642 3637 3638 3656 3651 3651 3660 3651 3661 3661 3656 3665 3661 3668 3662 3667 3661 3667 3676 3685 3672 3678 3674 3683 3693 3687 3696 3697 3690 3680 3707 3699 3686 3705 3702 3702 3720 3712 3723 3715 3717 3706 3730 3721 3727 3739 3746 3736 3741 3721 3267 3493 2931 2817 2906 2568 2110 2224 1993 1875 1521 1529 1407 1406 1521 1404 1171 1060 1287 1060 1058 1065 830 1057 833 829 718 720 719 719 604 601 722 601 494 488 488 493 492 493 492 492 379 380 379 379 378 379 378 379 379 376 378 379 380 381 379 380

Tree=0
num_leaves=31
num_cat=0
split_feature=16 42 27 22 50 27 0 15 54 0 54 0 50 45 36 36 54 0 36 45 0 27 36 50 46 52 36 54 53 36
split_gain=4.00256 3.439 2.21581 0.749371 0.336692 0.345726 0.242141 0.176148 0.102231 0.102206 0.0623895 0.0517238 0.0469556 0.0427427 0.0410162 0.0262001 0.0206254 0.0188995 0.0273539 0.0148331 0.0504599 0.0249598 0.0281082 0.014435 0.0119879 0.0118526 0.0115726 0.0917049 0.0103525 0.00978145
threshold=0.57500000000000007 1.0000000180025095e-35 0.22500000000000003 1.0000000180025095e-35 0.22500000000000001 0.22500000000000003 0.70850000000000002 18.500000000000004 0.15291840583086017 0.70350000000000013 0.16405049711465838 0.62750000000000006 0.72500000000000009 64.500000000000014 1.0000000180025095e-35 1.0000000180025095e-35 0.16276331245899203 0.63650000000000018 1.0000000180025095e-35 25.500000000000004 0.71950000000000014 0.22500000000000003 1.0000000180025095e-35 0.22500000000000001 0.22150000000000003 0.63230854272842418 1.0000000180025095e-35 0.084858655929565444 0.64992347359657299 1.0000000180025095e-35
decision_type=2 2 2 2 2 2 2 2 2 2 2 2 2 2 2 2 2 2 2 2 2 2 2 2 2 2 2 2 2 2
left_child=-1 3 -3 4 7 -6 12 -2 13 16 11 23 17 15 -14 24 -4 -7 -19 -9 -21 -22 -23 -5 -8 -11 27 -13 29 -15
right_child=1 2 9 10 5 6 8 19 -10 25 -12 26 14 28 -16 -17 -18 18 -20 20 21 22 -24 -25 -26 -27 -28 -29 -30 -31
leaf_value=-0.099999999999999895 0.0072003110084344207 -0.099999999999999339 0.027258039853783368 -0.095800941444268095 -0.099999999999999215 -0.091376780490233192 -0.08714861706685828 -0.099999999999999617 0.083320215707378215 -0.059971810242811445 0.085363605141810545 -0.090873634061617942 -0.06532457749895032 -0.031199798246888663 0.019137410142398906 0.02375179780590737 0.087690010589499046 -0.091568277155552602 -0.0056690862231325856 -0.097313435175387514 -0.099999999999991596 -0.074742684927097763 0.017259245667084012 -0.025253979825811207 -0.025183665843312209 0.094303474041513194 0.019893144046018246 0.016413837208695468 0.018780248206156626 0.023577863491877314
leaf_weight=0.81411020545056079 0.049432254687417077 0.16780288223526452 0.071823524966020957 0.011375760892406217 0.1275534262531437 0.070797877124277875 0.019621322222519666 0.25949782316456549 0.049988108337856829 0.0012460191210265084 0.03015640756348148 0.022118129883892834 0.02700066649413202 0.021888685936573893 0.030736401706235483 0.01206502626882866 0.017573902761796489 0.017992991270148195 0.019112420530291274 0.1309571071760729 0.01189073920249939 0.013088451960356906 0.0227012102259323 0.019997884955955669 0.012961365806404501 1.494024508690927 0.41219205409288406 0.20018529691151343 0.19443452516861726 0.012983696185983717
leaf_count=1193 24 172 166 28 213 89 48 66 63 3 36 54 67 54 76 30 21 45 47 170 29 33 57 49 33 622 163 110 175 32
internal_value=1.62777e-08 0.022912 0.0727747 -0.0256143 -0.0512169 -0.0266816 -0.00757967 -0.0822722 0.0175646 0.0910701 0.0150211 0.0118354 -0.0567544 0.0055663 -0.0203611 -0.0391917 0.0391379 -0.0762277 -0.0473229 -0.0923669 -0.0812787 -0.0372382 -0.0163863 -0.0508336 -0.062499 0.0941749 0.0149341 0.00573925 0.014281 -0.010805
internal_weight=4.36731 3.5532 1.75247 1.80073 1.1047 0.617137 0.489583 0.487568 0.323943 1.58467 0.696026 0.665869 0.16564 0.273955 0.0577371 0.0446477 0.0893974 0.107903 0.0371054 0.438135 0.178638 0.0476804 0.0357897 0.0313736 0.0325827 1.49527 0.634495 0.222303 0.229307 0.0348724
internal_count=3968 2775 984 1791 1351 972 759 379 435 812 440 404 324 372 143 111 187 181 92 355 289 119 90 77 81 625 327 164 261 86
is_linear=0
shrinkage=0.05


Tree=1
num_leaves=31
num_cat=0
split_feature=42 0 56 46 50 30 15 51 52 36 15 0 46 15 36 0 47 9 52 55 20 54 12 20 27 54 7 40 36 54
split_gain=5.72306 2.0884 1.96876 1.63407 0.914522 0.833095 0.564629 0.262178 0.428274 0.0918647 0.0945202 0.0453477 0.0432709 0.0332525 0.0289707 0.0212036 0.0169928 0.0214767 0.060062 0.0153841 0.0653024 0.0152826 0.0134638 0.00982514 0.00748838 0.00666134 0.00617396 0.00883464 0.0045685 0.00412934
threshold=1.0000000180025095e-35 0.73150000000000015 0.48500000000000004 0.41450000000000004 0.22500000000000001 1.0000000180025095e-35 15.500000000000002 0.5938059687614442 0.66012990474700939 0.52000000000000013 20.500000000000004 0.83850000000000013 0.20350000000000004 45.500000000000007 0.52000000000000013 0.8025000000000001 0.08950000000000001 0.26250000000000007 0.70505765080451976 0.46407629549503332 1.0000000180025095e-35 0.17460481077432635 0.40650000000000003 1.0000000180025095e-35 0.62500000000000011 0.17834182828664782 0.14350000000000002 0.59500000000000008 0.52000000000000013 0.16155024617910388
decision_type=2 2 2 2 2 2 2 2 2 2 2 2 2 2 2 2 2 2 2 2 2 2 2 2 2 2 2 2 2 2
left_child=14 6 -3 4 11 7 -2 8 -6 12 -11 -4 -9 -5 26 23 -14 -18 29 -20 -21 -12 28 -10 -17 -24 -1 -28 -8 -19
right_child=1 2 3 13 5 -7 22 9 15 10 21 -13 16 -15 -16 24 17 18 19 20 -22 -23 25 -25 -26 -27 27 -29 -30 -31
leaf_value=-0.091896334332127197 0.036953616495942268 -0.10021616455285254 -0.09151255968318496 0.097306323834331937 0.034001856430881994 -0.090236341019600833 -0.090153409959367103 0.0059978434373628127 -0.092431959504972405 0.092844907391026243 0.041348925342767406 -0.027544606080932305 0.021693120355584058 0.075829352805558706 -0.01481598657546465 -0.055536433752054651 0.042073147771427108 -0.046495158255336948 0.044706696344514976 0.04365134522177655 -0.02416411993792561 0.056615683015396712 -0.07551591851152864 -0.062382014400694109 -0.012216040253830818 -0.029197597080492296 -0.087934468524938914 -0.038272637352976556 -0.067485562385486017 -0.01464843167527149
leaf_weight=1.3398075874429194 0.11261882432154369 0.26109129728865799 0.16312986219418268 0.91156549321021862 0.31613933213520873 0.13745682410080906 0.44772131858917419 0.11750191583996672 0.063184808503137901 0.13966234581312154 0.39644135284470394 0.033373939484590665 0.15924556835670944 0.22463977159350179 0.012490516099205595 0.02384715829975903 1.2502574557729529 0.017081910045817383 0.20268704756745137 0.12550617198576219 0.049499152111820877 0.27949201303999871 0.017778473367798142 0.047764132759766653 0.017149754392448813 0.01377821245114319 0.02849574660649512 0.013059627293841913 0.02338880168099422 0.025186958344420418
leaf_count=2380 3 10 92 56 34 310 385 38 20 26 36 33 47 32 27 32 41 19 15 15 69 30 27 34 21 22 21 28 34 31
internal_value=5.4741e-09 0.0226483 0.0334225 0.040845 0.0242017 0.0303189 -0.0642388 0.0354482 0.000844969 0.0413114 0.0553988 -0.0806483 0.0354101 0.0930601 -0.0906222 -0.0681414 0.0372992 0.0387871 0.0290043 0.03533 0.0244702 0.0476616 -0.0869102 -0.0794953 -0.0374147 -0.0552925 -0.0913076 -0.0723272 -0.089028 -0.0275185
internal_weight=6.97104 5.57719 4.9619 4.70081 3.56461 3.3681 0.615286 3.23065 0.468085 2.76256 0.815596 0.196504 1.94697 1.13621 1.39385 0.151946 1.82946 1.67022 0.419961 0.377692 0.175005 0.675933 0.502667 0.110949 0.0409969 0.0315567 1.38136 0.0415554 0.47111 0.0422689
internal_count=3968 1512 1041 1031 943 818 471 508 141 367 92 125 275 88 2456 107 237 190 149 99 84 66 468 54 53 49 2429 49 419 50
is_linear=0
shrinkage=0.05


Tree=2
num_leaves=31
num_cat=0
split_feature=46 55 46 1 36 16 42 0 45 12 27 28 0 54 27 30 50 0 54 36 42 36 50 0 22 54 0 36 54 36
split_gain=19.4929 0.410087 0.515361 0.017364 0.0784353 0.00542529 0.00638593 0.00502516 0.00561521 0.00259801 0.0026756 0.00175512 0.00204177 0.000810546 0.000494542 0.000440316 0.000281932 0.0002606 0.000251178 0.000286555 0.000201563 0.000171592 0.000153945 0.000120744 0.000114602 0.0001017 9.32008e-05 9.03941e-05 8.91765e-05 8.88685e-05
threshold=0.41450000000000004 0.5356489121913911 0.47150000000000003 0.80750000000000022 0.52000000000000013 0.57500000000000007 1.0000000180025095e-35 0.91750000000000009 79.500000000000014 0.60750000000000004 0.22500000000000003 78.850000000000009 0.72750000000000015 0.16030699014663699 0.22500000000000003 1.0000000180025095e-35 0.22500000000000001 0.70850000000000002 0.19756090641021731 0.52000000000000013 1.0000000180025095e-35 1.0000000180025095e-35 0.72500000000000009 0.70350000000000013 1.0000000180025095e-35 0.17613515257835391 0.73150000000000015 0.52000000000000013 0.083723995834589018 1.0000000180025095e-35
decision_type=2 2 2 2 2 2 2 2 2 2 2 2 2 2 2 2 2 2 2 2 2 2 2 2 2 2 2 2 2 2
left_child=3 2 -2 5 15 -1 13 8 -3 10 26 12 23 14 -7 20 -14 22 19 -18 25 28 24 -12 -16 -5 -8 -15 -19 -24
right_child=1 7 -4 4 -6 6 9 -9 -10 -11 11 -13 16 27 17 -17 18 21 -20 -21 -22 -23 29 -25 -26 -27 -28 -29 -30 -31
leaf_value=-0.084179861421642896 0.010966644404275035 0.080536809057685843 0.087640401419892017 -0.086993031063196932 -0.0043598930950599748 -0.084137298457089227 -0.084171850878647175 0.088497394536548424 0.088420239680721172 -0.079804462585937569 -0.089075272504960917 -0.080541974622435564 -0.091791799018386411 -0.090489958587329083 -0.084769776518427584 -0.084168192468004444 -0.095428260910138146 -0.085418788562439354 -0.09217895537426124 -0.09819572560780003 -0.093754467603392219 -0.088352206622348398 -0.085920283059112756 -0.091778922487054423 -0.0868072280593436 -0.091798815340367282 -0.086911749261430277 -0.094240247975269018 -0.087249993272842302 -0.088181119075215808
leaf_weight=0.85069229325745332 0.45261931017739732 0.51080273301340673 0.42489010037388653 0.025645589164923766 0.03477027227927465 0.20979830936994437 0.048039707180578151 1.9933175076730547 0.40494872530689463 0.042496318958001211 0.15873708028811961 0.025225170247722417 0.047158770146779716 0.059359525446779915 0.24560544011183061 0.026936501613818109 0.35677777481032535 0.098086749378126115 0.043303902668412775 0.12677322950912639 0.046393599739531055 0.29493500385433435 0.0790211878484115 0.055816424719523638 0.095991233945824206 0.019288358045741916 0.087698683608323336 0.022030979744158685 0.20634812582284212 0.096603019977919757
leaf_count=1137 36 33 7 32 29 282 65 22 13 30 180 16 45 62 328 36 264 123 32 49 36 340 100 56 116 21 97 21 247 113
internal_value=2.38453e-09 0.0780517 0.0480921 -0.0868359 -0.0703766 -0.0876108 -0.088827 0.0870889 0.0840229 -0.0918995 -0.0924408 -0.0935248 -0.0939401 -0.0866618 -0.0863646 -0.0897859 -0.0954956 -0.0867831 -0.0958271 -0.0961538 -0.0914428 -0.0874927 -0.0859608 -0.0897786 -0.0853423 -0.089056 -0.0859421 -0.0915051 -0.08666 -0.0871639
internal_weight=7.19011 3.78658 0.877509 3.40353 0.153034 3.2505 2.39981 2.90907 0.915751 0.992027 0.949531 0.813792 0.788567 1.40778 1.32639 0.118264 0.574014 1.11659 0.526855 0.483551 0.0913275 0.59937 0.517221 0.214554 0.341597 0.0449339 0.135738 0.0813905 0.304435 0.175624
internal_count=3968 111 43 3857 154 3703 2566 68 46 834 804 642 626 1732 1649 125 390 1367 345 313 89 710 657 236 444 53 162 83 370 213
is_linear=0
shrinkage=0.05


Tree=3
num_leaves=31
num_cat=0
split_feature=46 46 33 5 9 16 42 27 0 0 54 27 9 0 50 36 50 51 52 22 36 0 0 54 36 36 49 0 9 22
split_gain=18.2399 0.0661826 0.11993 0.144109 0.475548 0.00335791 0.00396862 0.00188484 0.0017837 0.00116822 0.000657141 0.000374161 0.000209626 0.000202498 0.000160192 0.000137047 0.000117333 9.84841e-05 9.04536e-05 8.23197e-05 7.8921e-05 7.38358e-05 7.30939e-05 7.16189e-05 6.81765e-05 5.61173e-05 5.24479e-05 4.14509e-05 4.00503e-05 3.93449e-05
threshold=0.41450000000000004 0.47150000000000003 52.500000000000007 0.45000000000000007 0.48150000000000004 0.57500000000000007 1.0000000180025095e-35 0.22500000000000003 0.9255000000000001 0.72750000000000015 0.16030699014663699 0.22500000000000003 0.31550000000000006 0.70850000000000002 0.22500000000000001 1.0000000180025095e-35 0.72500000000000009 0.5938059687614442 0.66012990474700939 1.0000000180025095e-35 0.52000000000000013 0.73150000000000015 0.70350000000000013 0.083723995834589018 1.0000000180025095e-35 0.52000000000000013 4.7500000000000009 0.62750000000000006 0.26250000000000007 1.0000000180025095e-35
decision_type=2 2 2 2 2 2 2 2 2 2 2 2 2 2 2 2 2 2 2 2 2 2 2 2 2 2 2 2 2 2
left_child=5 2 -2 -4 12 -1 10 21 -3 22 11 -7 -5 16 -11 23 19 18 -16 -13 -12 -8 -9 -15 -18 28 29 -21 -19 -25
right_child=1 8 3 4 -6 6 7 9 -10 14 20 13 -14 15 17 -17 24 25 -20 27 -22 -23 -24 26 -26 -27 -28 -29 -30 -31
leaf_value=-0.078779266147045404 0.078410999450676699 0.078746950429316898 0.081392405499913181 -0.095590692244739497 0.078537303428733551 -0.078737177769224578 -0.078757125660119082 -0.082730144847953518 0.081242572203812938 -0.084914960645427237 -0.083917383641211762 -0.079218822771487826 -0.090039016829924587 -0.079709047069442734 -0.089058830209349654 -0.082123245146158971 -0.08014085969928357 -0.0889669214188476 -0.085797587352520674 -0.079756679056279201 -0.087356827940935647 -0.080968027718393912 -0.084844705770373813 -0.07972362028815877 -0.081996125573846626 -0.089823862624526907 -0.081797744330652469 -0.081709058043036797 -0.087580482642949153 -0.082117166659021357
leaf_weight=1.0759542408632117 0.50707517773844335 1.2024781729560348 0.11232075095176697 0.037062855320982635 0.09842405840754509 0.26116321043809909 0.058473480923566856 0.1710971150896512 1.7697257177205754 0.046814674278721213 0.078872996673453488 0.29538314114324726 0.031416549696587026 0.11827528721187264 0.029516199370846152 0.33396447554696351 0.09236231679096818 0.085631064197514206 0.076027842122130096 0.04978003102587536 0.021151057560928166 0.10662031749961898 0.053692653367761523 0.072347017005085945 0.10674868011847138 0.062372467073146254 0.14797916921088472 0.059897413710132241 0.13297929934924468 0.0225112100597471
leaf_count=1181 13 34 2 22 3 288 65 182 15 49 84 328 22 126 29 351 100 87 86 54 24 104 57 79 113 82 157 62 147 22
internal_value=1.02677e-08 0.0768203 0.0639206 0.0376058 0.00813872 -0.0811125 -0.0821232 -0.0849618 0.0802329 -0.0861601 -0.0807159 -0.0804641 -0.0930437 -0.0808112 -0.0876773 -0.0813932 -0.0801417 -0.0880118 -0.0867096 -0.0796532 -0.0846447 -0.080185 -0.0832352 -0.080718 -0.0811355 -0.088501 -0.0812094 -0.0808229 -0.0881236 -0.0802916
internal_weight=7.31812 3.7585 0.786299 0.279224 0.166903 3.55962 2.48366 0.823225 2.9722 0.658131 1.66044 1.56041 0.0684794 1.29925 0.433342 0.695077 0.604172 0.386527 0.105544 0.405061 0.100024 0.165094 0.22479 0.361113 0.199111 0.280983 0.242837 0.109677 0.21861 0.0948582
internal_count=3968 111 62 49 47 3857 2676 888 49 719 1788 1680 44 1392 480 735 657 431 115 444 108 169 239 384 213 316 258 116 234 101
is_linear=0
shrinkage=0.05


Tree=4
num_leaves=31
num_cat=0
split_feature=46 0 11 47 8 16 42 27 0 54 27 0 36 50 50 51 22 52 0 54 36 36 0 49 0 22 36 54 9 55
split_gain=16.4941 0.0604702 0.103555 0.0856466 0.25968 0.00206092 0.00229302 0.00120746 0.000705377 0.000408728 0.000260098 0.000143603 9.81703e-05 9.59528e-05 8.29567e-05 5.85721e-05 5.67312e-05 5.2577e-05 5.05275e-05 4.98635e-05 4.83328e-05 4.82559e-05 4.66049e-05 3.73405e-05 2.88322e-05 2.75604e-05 2.75272e-05 2.4176e-05 2.33879e-05 2.10764e-05
threshold=0.41450000000000004 0.91750000000000009 0.17450000000000002 0.079500000000000015 0.17450000000000002 0.57500000000000007 1.0000000180025095e-35 0.22500000000000003 0.72750000000000015 0.16030699014663699 0.22500000000000003 0.70850000000000002 1.0000000180025095e-35 0.22500000000000001 0.72500000000000009 0.5938059687614442 1.0000000180025095e-35 0.66012990474700939 0.73150000000000015 0.083723995834589018 1.0000000180025095e-35 0.52000000000000013 0.70350000000000013 4.7500000000000009 0.62750000000000006 1.0000000180025095e-35 0.52000000000000013 0.15578691661357882 0.26250000000000007 0.41699841618537908
decision_type=2 2 2 2 2 2 2 2 2 2 2 2 2 2 2 2 2 2 2 2 2 2 2 2 2 2 2 2 2 2
left_child=5 2 -2 -4 -5 -1 9 18 22 10 -7 14 19 -10 16 17 -12 -15 -8 -13 -16 -11 27 25 -18 -21 28 -9 -17 -20
right_child=1 -3 3 4 -6 6 7 8 13 21 11 12 -14 15 20 26 24 -19 29 23 -22 -23 -24 -25 -26 -27 -28 -29 -30 -31
leaf_value=-0.07454170923413253 0.071223824052686555 0.076032436443874335 0.073740947892431991 -0.087274671110222871 0.063422668958424563 -0.074506495584493126 -0.074524206703116325 -0.077586355192223344 -0.079553340964893929 -0.078714602978097334 -0.074895159297983557 -0.075298134389187907 -0.077296957330337993 -0.08296443976298977 -0.075652034960617232 -0.082877508964752059 -0.075340005150988265 -0.080284220642411197 -0.075381473795380446 -0.07531201397281273 -0.077195582368590074 -0.081543160863473976 -0.079511508767156819 -0.077025213035881557 -0.076944085561070602 -0.077298407561436314 -0.083482814799737293 -0.079538186933652166 -0.081732251059008762 -0.076830934782265076
leaf_weight=1.1388357169344092 0.51461689278949085 3.0836958511499688 0.064640327938832343 0.048151483701076359 0.070357000571675599 0.27681106975069303 0.061793764936737605 0.15264882461633533 0.044373784679919481 0.076438827905803808 0.31204110803082563 0.12366967089474201 0.33670111151877791 0.024701906251721084 0.095700513862539083 0.071956908330321312 0.052017254231031984 0.070575767138507217 0.039014522219076753 0.075627627200447023 0.10789223952451721 0.01878393767401576 0.051048906112555414 0.14946943969698623 0.060705981974024326 0.022704400354996324 0.050422138243447989 0.017705072066746652 0.1171619346132502 0.070218421518802643
leaf_count=1181 31 28 2 41 9 288 65 162 49 84 328 126 351 29 100 87 54 86 39 79 113 24 57 157 62 22 82 20 147 65
internal_value=-1.48664e-08 0.0730248 0.0597327 0.0274447 0.00219245 -0.0763025 -0.0771111 -0.0793733 -0.0804288 -0.0760894 -0.0759015 -0.0761904 -0.0766786 -0.0817381 -0.0756402 -0.0820277 -0.0752425 -0.0809791 -0.0756668 -0.0761181 -0.07647 -0.0792726 -0.0781863 -0.0765274 -0.0762039 -0.0757707 -0.0824448 -0.0777892 -0.082168 -0.0763132
internal_weight=7.40048 3.78146 0.697766 0.183149 0.118508 3.61902 2.48019 0.771622 0.600595 1.70856 1.61334 1.33653 0.708172 0.379192 0.628357 0.334819 0.424764 0.0952777 0.171027 0.371471 0.203593 0.0952228 0.221403 0.247801 0.112723 0.098332 0.239541 0.170354 0.189119 0.109233
internal_count=3968 111 83 52 50 3857 2676 888 719 1788 1680 1392 735 480 657 431 444 115 169 384 213 108 239 258 116 101 316 182 234 104
is_linear=0
shrinkage=0.05


Tree=5
num_leaves=31
num_cat=0
split_feature=46 0 49 47 5 16 42 27 0 54 27 0 36 50 50 22 51 0 54 36 52 36 0 49 0 22 36 54 9 55
split_gain=15.0692 0.042989 0.0683428 0.0609586 0.00690468 0.00137877 0.00148768 0.000823189 0.000465267 0.000273788 0.000184015 0.000102592 7.04497e-05 6.31063e-05 5.91004e-05 3.96167e-05 3.83551e-05 3.54795e-05 3.53267e-05 3.44463e-05 3.39148e-05 3.20161e-05 3.14828e-05 2.67898e-05 2.05495e-05 1.95445e-05 1.67248e-05 1.60914e-05 1.50763e-05 1.47615e-05
threshold=0.41450000000000004 0.92300000000000015 5.9500000000000011 0.11650000000000002 0.88350000000000006 0.57500000000000007 1.0000000180025095e-35 0.22500000000000003 0.72750000000000015 0.16030699014663699 0.22500000000000003 0.70850000000000002 1.0000000180025095e-35 0.22500000000000001 0.72500000000000009 1.0000000180025095e-35 0.5938059687614442 0.73150000000000015 0.083723995834589018 1.0000000180025095e-35 0.66012990474700939 0.52000000000000013 0.70350000000000013 4.7500000000000009 0.62750000000000006 1.0000000180025095e-35 0.52000000000000013 0.15578691661357882 0.26250000000000007 0.41699841618537908
decision_type=2 2 2 2 2 2 2 2 2 2 2 2 2 2 2 2 2 2 2 2 2 2 2 2 2 2 2 2 2 2
left_child=5 2 3 -2 -4 -1 9 17 22 10 -7 14 18 -10 15 -12 20 -8 -13 -16 -15 -11 27 25 -17 -20 28 -9 -18 -19
right_child=1 -3 4 -5 -6 6 7 8 13 21 11 12 -14 16 19 24 26 29 23 -21 -22 -23 -24 -25 -26 -27 -28 -29 -30 -31
leaf_value=-0.071129819669724217 0.066671235560962619 0.072202955675769107 0.061957378678092048 0.0087950087431368663 0.072783756284900081 -0.071100135179747212 -0.071114872657934966 -0.073678890260512706 -0.075300512656297447 -0.074592865742151918 -0.071422668204873072 -0.071758817597140895 -0.073434931171141082 -0.078140751118337765 -0.072055142834015304 -0.071789890506914686 -0.078064372315484742 -0.071827426137161796 -0.071771288960752883 -0.07335086006688353 -0.075913281974113955 -0.076952312386351598 -0.075272746789550593 -0.073206471349664876 -0.073131161262364505 -0.073438419497108567 -0.078539109031477303 -0.075290324164962938 -0.077111941867434863 -0.07303131386383882
leaf_weight=1.1720248283818366 0.077595023438334798 3.0379101450089365 0.29344423918519169 0.1099810634041205 0.29564811289310455 0.28492802265100214 0.063608944416046032 0.1524819991318509 0.043226307025179267 0.075237436569295713 0.32015549944480859 0.12640478985849768 0.33739714662078768 0.022815009288024157 0.097486318845767528 0.053524288232438266 0.066573849471751601 0.039817385259084404 0.077302011253777891 0.10825086914701387 0.068083826336078346 0.017774301464669406 0.049765452218707651 0.15021577582228929 0.061218636052217335 0.022755342070013285 0.046097513928543776 0.017243997717741877 0.11053860309766605 0.070626490865834057
leaf_count=1181 5 26 32 39 9 288 65 162 49 84 328 126 351 29 100 54 87 39 79 113 86 24 57 157 62 22 82 20 147 65
internal_value=-5.32353e-09 0.0695191 0.0590214 0.0327368 0.0673908 -0.0725434 -0.0732104 -0.0750693 -0.0759787 -0.0724048 -0.0722551 -0.072498 -0.0729102 -0.0770917 -0.0720387 -0.0717084 -0.0773382 -0.0720555 -0.0724402 -0.0727369 -0.0764724 -0.0750437 -0.0741669 -0.0727843 -0.0725055 -0.0721504 -0.0776908 -0.0738426 -0.0774699 -0.0725973
internal_weight=7.47013 3.81458 0.776668 0.187576 0.589092 3.65555 2.48353 0.750879 0.576827 1.73265 1.63964 1.35471 0.714075 0.357335 0.640636 0.434898 0.314109 0.174053 0.376678 0.205737 0.0908988 0.0930117 0.219491 0.250273 0.114743 0.100057 0.22321 0.169726 0.177112 0.110444
internal_count=3968 111 85 44 41 3857 2676 888 719 1788 1680 1392 735 480 657 444 431 169 384 213 115 108 239 258 116 101 316 182 234 104
is_linear=0
shrinkage=0.05


Tree=6
num_leaves=31
num_cat=0
split_feature=46 0 5 20 33 16 42 27 0 54 27 19 0 36 50 50 36 51 54 0 52 36 0 22 49 0 50 22 36 55
split_gain=13.8617 0.0448957 0.0701627 0.069642 0.253287 0.000961793 0.00101953 0.000579465 0.000321156 0.000190335 0.000132362 0.000122162 7.4176e-05 5.10716e-05 4.34609e-05 4.34117e-05 2.90875e-05 2.63488e-05 2.54641e-05 2.54046e-05 2.30386e-05 2.21494e-05 2.20415e-05 2.16673e-05 1.94114e-05 1.9385e-05 2.55345e-05 1.40684e-05 1.11003e-05 1.05731e-05
threshold=0.41450000000000004 0.92300000000000015 0.75800000000000012 6.5000000000000009 22.500000000000004 0.57500000000000007 1.0000000180025095e-35 0.22500000000000003 0.72750000000000015 0.16030699014663699 0.22500000000000003 5.5000000000000009 0.70850000000000002 1.0000000180025095e-35 0.22500000000000001 0.22500000000000001 1.0000000180025095e-35 0.5938059687614442 0.083723995834589018 0.73150000000000015 0.66012990474700939 0.52000000000000013 0.70350000000000013 1.0000000180025095e-35 4.7500000000000009 0.63650000000000018 0.72500000000000009 1.0000000180025095e-35 0.52000000000000013 0.41699841618537908
decision_type=2 2 2 2 2 2 2 2 2 2 2 2 2 2 2 2 2 2 2 2 2 2 2 2 2 2 2 2 2 2
left_child=5 2 3 4 -2 -1 9 19 22 10 -7 -6 14 18 -12 -10 23 20 -14 -8 -17 -11 -9 -16 27 26 -18 -20 -19 -21
right_child=1 -3 -4 -5 11 6 7 8 15 21 12 -13 13 -15 16 17 25 28 24 29 -22 -23 -24 -25 -26 -27 -28 -29 -30 -31
leaf_value=-0.068323266900500154 0.069893766655514486 0.069086185935987532 0.064045323659427472 0.066991721052444414 -0.077774827624569387 -0.068297915034361681 -0.068310980718679193 -0.070616073519889563 -0.071840669993107564 -0.07123876469265561 -0.068480373952892512 -0.082732240182675498 -0.068852927765634925 -0.07027402845938889 -0.068580602314814984 -0.074229846551248299 -0.068694668954560764 -0.073663435433008115 -0.068865030120526069 -0.068911140622733708 -0.072358341096231932 -0.073232508759582052 -0.071821100362197673 -0.069723110008019812 -0.070080353721507338 -0.070211632991160428 -0.070098675051910808 -0.07027850620032125 -0.074553760652251042 -0.069926544189875206
leaf_weight=1.1893531528767201 0.064634189009666776 3.0566565914778039 0.60100212355609983 0.073563629877753556 0.025247001671232283 0.28914423263631794 0.064561280887573846 0.16905165417119861 0.042504067299887538 0.074361238104756811 0.20246763771865495 0.024473088386002928 0.12764982308726758 0.33708445401862264 0.14092737383907661 0.021836570638697594 0.072988462110515684 0.17078465380473062 0.078111323877237737 0.040213869069702923 0.066592259216122329 0.017141553631518036 0.048931899713352323 0.058817708923015743 0.15027038427069783 0.11272832518443465 0.058211659255903214 0.022725443181116134 0.044035759696271271 0.070724313380196691
leaf_count=1181 1 26 31 2 23 288 65 182 49 84 203 28 126 351 143 29 76 234 79 39 86 24 57 58 157 116 61 22 82 65
internal_value=-1.02197e-08 0.0663415 0.0557075 0.0290413 0.00462801 -0.0694923 -0.0700526 -0.0716085 -0.0723896 -0.0693925 -0.0692695 -0.080215 -0.0694758 -0.0698264 -0.0690874 -0.0733372 -0.0693644 -0.0735469 -0.0694279 -0.0690996 -0.0728205 -0.0716123 -0.0708866 -0.068917 -0.0697202 -0.0697308 -0.0693176 -0.0691836 -0.0738459 -0.0695585
internal_weight=7.5168 3.84558 0.78892 0.187918 0.114354 3.67122 2.48187 0.739236 0.563737 1.74263 1.65113 0.0497201 1.36198 0.715841 0.646141 0.345753 0.443674 0.303249 0.378757 0.175499 0.0884288 0.0915028 0.217984 0.199745 0.251107 0.243928 0.1312 0.100837 0.21482 0.110938
internal_count=3968 111 85 54 52 3857 2676 888 719 1788 1680 51 1392 735 657 480 454 431 384 169 115 108 239 201 258 253 137 101 316 104
is_linear=0
shrinkage=0.05


Tree=7
num_leaves=31
num_cat=0
split_feature=46 0 49 19 16 42 27 0 54 27 0 36 50 50 36 51 54 0 52 22 0 36 49 0 50 22 55 36 9 54
split_gain=12.904 0.0454488 0.0589354 0.0475609 0.000689408 0.000721236 0.000417309 0.000227712 0.000136128 9.68603e-05 5.44762e-05 3.75778e-05 3.18937e-05 3.07313e-05 2.12704e-05 1.86429e-05 1.86291e-05 1.85569e-05 1.6322e-05 1.58275e-05 1.57807e-05 1.57232e-05 1.43678e-05 1.43044e-05 1.87234e-05 1.01943e-05 7.716e-06 7.67149e-06 7.39542e-06 7.36885e-06
threshold=0.41450000000000004 0.91750000000000009 6.2500000000000009 4.5000000000000009 0.57500000000000007 1.0000000180025095e-35 0.22500000000000003 0.72750000000000015 0.16030699014663699 0.22500000000000003 0.70850000000000002 1.0000000180025095e-35 0.22500000000000001 0.22500000000000001 1.0000000180025095e-35 0.59102532267570507 0.082955684512853636 0.73150000000000015 0.66012990474700939 1.0000000180025095e-35 0.70350000000000013 0.52000000000000013 4.7500000000000009 0.63650000000000018 0.72500000000000009 1.0000000180025095e-35 0.41699841618537908 0.52000000000000013 0.26250000000000007 0.15457262843847278
decision_type=2 2 2 2 2 2 2 2 2 2 2 2 2 2 2 2 2 2 2 2 2 2 2 2 2 2 2 2 2 2
left_child=4 2 3 -2 -1 8 17 20 9 -6 12 16 -11 -9 19 18 -12 -7 -15 -14 29 -10 25 24 -16 -18 -19 28 -17 -8
right_child=1 -3 -4 -5 5 6 7 13 21 10 11 -13 14 15 23 27 22 26 -20 -21 -22 -23 -24 -25 -26 -27 -28 -29 -30 -31
leaf_value=-0.065983807880180059 0.059213264434263606 0.066424269603160516 0.061257910481729107 0.0084885418599438128 -0.065962101888620603 -0.065973133407143517 -0.067824594151318418 -0.068980223435178886 -0.068465255763247287 -0.066116184890704852 -0.06642906773834438 -0.06765030833662318 -0.066204129037061882 -0.071009235385639372 -0.066300259647364773 -0.070955191980824756 -0.066455553998413949 -0.066484869554701176 -0.069412265181109892 -0.067178512833101584 -0.068965378049167803 -0.070160984762141096 -0.067484183070539716 -0.067597627600699581 -0.067500549305215138 -0.067654570936859879 -0.067350396420711986 -0.071276395844647428 -0.070268557074015497 -0.068878329241198979
leaf_weight=1.2009100473951551 0.077053115819581186 3.1579843033105135 0.51039336668327451 0.11545277805998921 0.2919665819499645 0.065190049703232833 0.14986689534271136 0.042056061967741698 0.073800061247311421 0.20414172974415101 0.12636917317286134 0.33692138805054128 0.14209417242091149 0.021225704811513424 0.073562160192523152 0.062723323819227517 0.080783084034919739 0.04047465801704675 0.064988852886017412 0.058973731123842299 0.048422578372992575 0.016777672106400132 0.15032991289626807 0.11272982187801972 0.058191743097268045 0.022711465833708644 0.070778065477497876 0.042748886917252094 0.10463024489581585 0.018656557484064251
leaf_count=1181 8 28 37 38 288 65 160 49 84 203 124 351 143 29 76 88 81 39 85 58 57 24 157 116 61 22 65 82 147 22
internal_value=1.22228e-08 0.0638649 0.0523663 0.0287918 -0.0669672 -0.0674432 -0.0687613 -0.0694343 -0.0668918 -0.0667888 -0.0669654 -0.0672658 -0.0666337 -0.070245 -0.0668709 -0.0704246 -0.0669251 -0.066643 -0.0698054 -0.0664899 -0.0681698 -0.0687794 -0.0671721 -0.0671842 -0.0668304 -0.0667187 -0.0670355 -0.0706786 -0.0705259 -0.0679412
internal_weight=7.54291 3.86088 0.702899 0.192506 3.68202 2.48111 0.731762 0.555319 1.74935 1.65877 1.36681 0.717115 0.649693 0.338373 0.445552 0.296317 0.380194 0.176443 0.0862146 0.201068 0.216946 0.0905777 0.253824 0.244484 0.131754 0.103495 0.111253 0.210102 0.167354 0.168523
internal_count=3968 111 83 46 3857 2676 888 719 1788 1680 1392 735 657 480 454 431 384 169 114 201 239 108 260 253 137 103 104 317 235 182
is_linear=0
shrinkage=0.05


Tree=8
num_leaves=31
num_cat=0
split_feature=46 0 49 47 5 5 16 42 27 0 54 27 0 36 50 50 36 54 0 51 52 22 0 36 0 50 49 22 55 36
split_gain=12.0508 0.0482021 0.06688 0.0745071 0.258749 0.000582629 0.000503122 0.000521517 0.000305232 0.000164841 9.92421e-05 7.164e-05 4.04632e-05 2.78934e-05 2.35631e-05 2.21895e-05 1.57111e-05 1.37813e-05 1.36963e-05 1.3444e-05 1.1711e-05 1.16399e-05 1.15037e-05 1.1411e-05 1.06733e-05 1.38265e-05 1.06652e-05 7.54502e-06 5.70378e-06 5.46198e-06
threshold=0.41450000000000004 0.91750000000000009 6.5500000000000007 0.091500000000000012 0.94100000000000017 0.82200000000000006 0.57500000000000007 1.0000000180025095e-35 0.22500000000000003 0.72750000000000015 0.16030699014663699 0.22500000000000003 0.70850000000000002 1.0000000180025095e-35 0.22500000000000001 0.22500000000000001 1.0000000180025095e-35 0.082955684512853636 0.73150000000000015 0.59102532267570507 0.66012990474700939 1.0000000180025095e-35 0.70350000000000013 0.52000000000000013 0.63650000000000018 0.72500000000000009 4.7500000000000009 1.0000000180025095e-35 0.41699841618537908 0.52000000000000013
decision_type=2 2 2 2 2 2 2 2 2 2 2 2 2 2 2 2 2 2 2 2 2 2 2 2 2 2 2 2 2 2
left_child=6 2 3 -2 5 -5 -1 10 18 22 11 -8 14 17 -13 -11 21 -14 -9 20 -17 -16 -10 -12 25 -18 27 -19 -20 -21
right_child=1 -3 -4 4 -6 -7 7 8 9 15 23 12 13 -15 16 19 24 26 28 29 -22 -23 -24 -25 -26 -27 -28 -29 -30 -31
leaf_value=-0.06401804671708082 0.065323439710165229 0.064213599056220982 0.059340663898771864 -0.074986088926177072 0.065369497575370916 -0.085436368989693964 -0.063999379214363633 -0.064009074295879057 -0.065702083623729979 -0.066592331787248452 -0.066149340490663081 -0.064131450777455343 -0.064400967300473622 -0.06545305008650032 -0.06420801684306203 -0.06833012018760333 -0.06429017725715791 -0.064423861158148285 -0.06444858884705118 -0.067915710763775297 -0.066963864171487225 -0.065044356922336802 -0.066580889263254034 -0.067604969861402964 -0.065408037870278615 -0.065323390560988195 -0.065309915748459055 -0.065457190562520959 -0.065193117232712913 -0.068555719662807046
leaf_weight=1.2036008797585966 0.073041163384914731 3.1586691375123337 0.513653656875249 0.032588439004030079 0.070367313921451569 0.022578216623514891 0.29264428617898408 0.065332549973390885 0.16748361085774377 0.041556951939128339 0.073144807422067859 0.20446198462741427 0.12640630127862096 0.33557521714828908 0.14218134875409305 0.020761481602676213 0.073695271741598845 0.080818353046197444 0.04049786610994488 0.16423129104077816 0.064138803398236632 0.058811230235733092 0.047885540465358645 0.01650095236254856 0.11222504300531 0.057756068417802453 0.14974964136490598 0.022606776561588049 0.070514977094717324 0.041826478322036564
leaf_count=1181 3 28 30 32 3 15 288 65 182 49 84 203 124 351 143 29 76 81 39 235 85 58 57 24 116 61 157 22 65 82
internal_value=-5.59681e-09 0.0615642 0.0498141 0.0251718 0.00180983 -0.0792631 -0.0648563 -0.0652647 -0.0663928 -0.0669751 -0.0647969 -0.0647092 -0.0648615 -0.0651209 -0.0645757 -0.0676731 -0.06478 -0.0648273 -0.0645835 -0.0678275 -0.067298 -0.0644527 -0.0658975 -0.0664173 -0.0650499 -0.0647441 -0.0650402 -0.0646497 -0.0649215 -0.0680456
internal_weight=7.54531 3.8709 0.712229 0.198575 0.125534 0.0551667 3.67441 2.47081 0.72423 0.547884 1.74658 1.65693 1.36429 0.715156 0.649131 0.332515 0.444669 0.379581 0.176345 0.290958 0.0849003 0.200993 0.215369 0.0896458 0.243676 0.131451 0.253175 0.103425 0.111013 0.206058
internal_count=3968 111 83 53 50 47 3857 2676 888 719 1788 1680 1392 735 657 480 454 384 169 431 114 201 239 108 253 137 260 103 104 317
is_linear=0
shrinkage=0.05


Tree=9
num_leaves=31
num_cat=0
split_feature=46 0 5 0 33 16 42 27 0 54 27 0 36 50 50 36 54 0 51 22 52 0 36 0 50 49 22 55 54 22
split_gain=11.3706 0.0408147 0.0483223 0.0578286 0.219475 0.000372967 0.000383851 0.000226474 0.000121426 7.34972e-05 5.36523e-05 3.03867e-05 2.09788e-05 1.774e-05 1.63051e-05 1.17629e-05 1.03007e-05 1.0253e-05 9.86753e-06 8.70536e-06 8.5638e-06 8.52021e-06 8.40831e-06 8.02237e-06 1.03808e-05 7.99075e-06 5.65567e-06 4.26812e-06 4.07118e-06 4.0138e-06
threshold=0.41450000000000004 0.91750000000000009 0.75800000000000012 0.89850000000000019 22.500000000000004 0.57500000000000007 1.0000000180025095e-35 0.22500000000000003 0.72750000000000015 0.16030699014663699 0.22500000000000003 0.70850000000000002 1.0000000180025095e-35 0.22500000000000001 0.22500000000000001 1.0000000180025095e-35 0.082955684512853636 0.73150000000000015 0.59102532267570507 1.0000000180025095e-35 0.66012990474700939 0.70350000000000013 0.52000000000000013 0.63650000000000018 0.72500000000000009 4.7500000000000009 1.0000000180025095e-35 0.41699841618537908 0.15457262843847278 1.0000000180025095e-35
decision_type=2 2 2 2 2 2 2 2 2 2 2 2 2 2 2 2 2 2 2 2 2 2 2 2 2 2 2 2 2 2
left_child=5 2 3 4 -2 -1 9 17 21 10 -7 13 16 29 -10 19 -13 -8 20 -15 -16 28 -11 24 -17 26 -18 -19 -9 -12
right_child=1 -3 -4 -5 -6 6 7 8 14 22 11 12 -14 15 18 23 25 27 -20 -21 -22 -23 -24 -25 -26 -27 -28 -29 -30 -31
leaf_value=-0.062338919208027782 0.063546248575497066 0.062290463645603124 0.057130299117429055 0.061866346627292207 -0.073099391233793429 -0.062322591891369752 -0.062331030740034224 -0.063710305463127698 -0.0645651603724198 -0.064181647134054595 -0.06229915063134403 -0.062670264025934494 -0.063582115692597613 -0.062503668869080292 -0.066063234312094252 -0.06257393033584735 -0.062690101933781078 -0.062711493433758758 -0.065817262159304085 -0.063227400147831403 -0.064886212676400087 -0.064555931326760879 -0.065438582080776173 -0.063543297863078455 -0.063470065878656834 -0.063457546657307212 -0.063586028035867173 -0.063355932567822265 -0.064500430476826631 -0.062796104592844001
leaf_weight=1.205159744829871 0.070321470499039029 3.1540105489548296 0.51218532514758408 0.077118087210692465 0.050479514291509986 0.29303074534982476 0.065419288235716411 0.14858945389278233 0.041210336377844214 0.072639210615306982 0.14843255945015676 0.12637288286350667 0.33455103071173653 0.14225074130808935 0.020425173046533018 0.073684103903360665 0.080811666091904044 0.040488235419616103 0.20300867862533778 0.058694058854598552 0.063494155707303435 0.047507851384580135 0.01628887967672199 0.11182296893093735 0.057562479341868311 0.14903304178733379 0.022524687869008631 0.070309732458554208 0.018312263884581625 0.055946176929865032
leaf_count=1181 1 28 30 6 46 288 65 160 49 84 147 124 351 143 29 76 81 39 317 58 85 57 24 116 61 157 22 65 22 56
internal_value=5.90254e-09 0.0598522 0.0490223 0.02804 0.00644567 -0.0630597 -0.0634124 -0.0643847 -0.0648905 -0.0630116 -0.0629363 -0.0630684 -0.0632936 -0.0628207 -0.0654952 -0.0629981 -0.0630388 -0.0628274 -0.0656287 -0.0627151 -0.0651727 -0.0639652 -0.0644119 -0.0632321 -0.062967 -0.0632233 -0.0628854 -0.0631204 -0.063797 -0.0624352
internal_weight=7.53169 3.86411 0.710104 0.197919 0.120801 3.66757 2.46241 0.718765 0.542548 1.74365 1.65472 1.36169 0.713293 0.648393 0.328138 0.444014 0.378742 0.176217 0.286928 0.200945 0.0839193 0.21441 0.0889281 0.24307 0.131247 0.252369 0.103336 0.110798 0.166902 0.204379
internal_count=3968 111 83 53 47 3857 2676 888 719 1788 1680 1392 735 657 480 454 384 169 431 201 114 239 108 253 137 260 103 104 182 203
is_linear=0
shrinkage=0.05


Tree=10
num_leaves=31
num_cat=0
split_feature=46 0 49 20 5 5 16 42 27 0 54 27 0 36 50 50 22 54 0 36 51 0 52 36 49 0 22 55 50 54
split_gain=10.7439 0.0387095 0.0473766 0.0607963 0.217353 0.000630717 0.00027902 0.000285634 0.000169557 9.03615e-05 5.49465e-05 4.04897e-05 2.29493e-05 1.58495e-05 1.342e-05 1.21135e-05 9.27899e-06 7.76625e-06 7.7362e-06 7.59004e-06 7.32263e-06 6.36833e-06 6.34291e-06 6.25674e-06 6.04436e-06 4.81621e-06 4.26834e-06 3.21554e-06 3.19906e-06 3.03677e-06
threshold=0.41450000000000004 0.91750000000000009 6.5500000000000007 6.5000000000000009 0.94100000000000017 0.82200000000000006 0.57500000000000007 1.0000000180025095e-35 0.22500000000000003 0.72750000000000015 0.16030699014663699 0.22500000000000003 0.70850000000000002 1.0000000180025095e-35 0.72500000000000009 0.22500000000000001 1.0000000180025095e-35 0.082955684512853636 0.73150000000000015 1.0000000180025095e-35 0.59102532267570507 0.70350000000000013 0.66012990474700939 0.52000000000000013 4.7500000000000009 0.62750000000000006 1.0000000180025095e-35 0.41699841618537908 0.22500000000000001 0.15457262843847278
decision_type=2 2 2 2 2 2 2 2 2 2 2 2 2 2 2 2 2 2 2 2 2 2 2 2 2 2 2 2 2 2
left_child=6 2 3 4 5 -2 -1 10 18 21 11 -8 14 17 16 -11 -13 -14 -9 -16 22 29 -17 -12 26 28 -19 -20 -18 -10
right_child=1 -3 -4 -5 -6 -7 7 8 9 15 23 12 13 -15 19 20 25 24 27 -21 -22 -23 -24 -25 -26 -27 -28 -29 -30 -31
leaf_value=-0.060900966890704955 -0.06903806048327378 0.06061975385883598 0.055689261939487367 0.061953865103724352 0.062010393267187026 -0.080319861267800441 -0.060886327547567266 -0.060893776898194821 -0.062095161330828187 -0.062837326774466531 -0.062503751726106407 -0.061028374503285424 -0.061189308471997751 -0.06198387205236483 -0.061337855778049448 -0.064137240962843775 -0.060845034230361521 -0.061206353362221994 -0.061225382332645142 -0.061947103881391144 -0.063923183725192498 -0.062829806631614318 -0.063116396123326354 -0.063595476523220798 -0.061875430122494184 -0.061859897194313257 -0.06198741400495026 -0.061786318672229536 -0.061614300769875202 -0.062780908127578083
leaf_weight=1.200522772734985 0.029670937103219663 3.141384024056606 0.5130042692180723 0.075737215578556061 0.069993369281291962 0.021268834127113223 0.29186634090729091 0.065171905094757565 0.14742356759961694 0.040755393798463047 0.071931737707927712 0.32593438983894862 0.12574788084020838 0.33206515846541151 0.098434568732045591 0.020089854893740267 0.028484023525379598 0.080413800082169473 0.04028937011025846 0.10635405598441139 0.19988040975295007 0.046986635716166347 0.062725091236643493 0.016052647377364337 0.14794017386157066 0.060147711366880685 0.022354044485837221 0.069828944397158921 0.025716407806612551 0.018129918491467834
leaf_count=1181 33 28 30 3 2 15 288 65 160 49 84 328 124 351 100 29 28 81 39 113 317 57 85 24 157 62 22 65 26 22
internal_value=-3.37227e-09 0.0582371 0.0476903 0.0268256 0.00482566 -0.0737485 -0.0615252 -0.0618318 -0.0626755 -0.0631169 -0.0614856 -0.0614205 -0.0615356 -0.0617321 -0.0613199 -0.0636432 -0.0611643 -0.06151 -0.0613255 -0.0616543 -0.0637594 -0.0623161 -0.063364 -0.0627029 -0.0616708 -0.0615519 -0.0613762 -0.0615811 -0.06121 -0.0621703
internal_weight=7.49631 3.85106 0.709675 0.19667 0.120933 0.0509398 3.64525 2.44472 0.711281 0.535991 1.73344 1.64546 1.35359 0.708521 0.645071 0.323451 0.440283 0.376456 0.17529 0.204789 0.282695 0.21254 0.0828149 0.0879844 0.250708 0.114348 0.102768 0.110118 0.0542004 0.165553
internal_count=3968 111 83 53 50 48 3857 2676 888 719 1788 1680 1392 735 657 480 444 384 169 213 431 239 114 108 260 116 103 104 54 182
is_linear=0
shrinkage=0.05


Tree=11
num_leaves=31
num_cat=0
split_feature=46 0 47 5 40 13 16 42 27 0 54 27 0 36 50 50 36 54 0 51 22 0 0 50 52 36 45 22 55 54
split_gain=10.1916 0.0359332 0.0400214 0.103449 0.227699 0.000509226 0.000210759 0.000214739 0.000128007 6.79269e-05 4.1437e-05 3.07564e-05 1.74658e-05 1.20533e-05 1.02527e-05 9.09257e-06 6.84205e-06 5.90121e-06 5.8767e-06 5.48798e-06 4.98151e-06 4.80149e-06 4.71837e-06 5.95411e-06 4.70317e-06 4.7017e-06 4.60372e-06 3.35024e-06 2.44069e-06 2.33926e-06
threshold=0.41450000000000004 0.90250000000000019 0.13750000000000004 0.94100000000000017 0.82500000000000007 0.29550000000000004 0.57500000000000007 1.0000000180025095e-35 0.22500000000000003 0.72750000000000015 0.16030699014663699 0.22500000000000003 0.70850000000000002 1.0000000180025095e-35 0.22500000000000001 0.22500000000000001 1.0000000180025095e-35 0.082955684512853636 0.73150000000000015 0.5938059687614442 1.0000000180025095e-35 0.70450000000000002 0.63650000000000018 0.72500000000000009 0.66012990474700939 0.52000000000000013 55.500000000000007 1.0000000180025095e-35 0.41699841618537908 0.086211275309324278
decision_type=2 2 2 2 2 2 2 2 2 2 2 2 2 2 2 2 2 2 2 2 2 2 2 2 2 2 2 2 2 2
left_child=6 2 -2 4 5 -4 -1 10 18 21 11 -8 14 17 -13 -11 20 -14 -9 24 -16 -10 23 -18 -17 -12 27 -19 -20 -22
right_child=1 -3 3 -5 -6 -7 7 8 9 15 25 12 13 -15 16 19 22 26 28 -21 29 -23 -24 -25 -26 -27 -28 -29 -30 -31
leaf_value=-0.05965985618344527 0.056924136455376417 0.058995066313482107 -0.068622574297976385 0.060699744921142253 0.060812558767385588 -0.078074588729381778 -0.059647084179041257 -0.059653629970421895 -0.060780420635761293 -0.0613523030813692 -0.061060851813322173 -0.059731439295318926 -0.059912145080025542 -0.06060771002923613 -0.059784267161034105 -0.062485680562532592 -0.059838111887550609 -0.05991313472236022 -0.059943848570454317 -0.062299779284915861 -0.059926996279212358 -0.061384651882034173 -0.060582517778468507 -0.060521712346091862 -0.061601047369377528 -0.062013942494404818 -0.060508622603997524 -0.060611024595302931 -0.060434462493479758 -0.060583699008887597
leaf_weight=1.1928710077190774 0.35858215257758308 3.1980556331109256 0.036611192219424993 0.14371670037508011 0.069230280816555023 0.023329890565946698 0.29001328791491721 0.0647577674826606 0.16981662809848785 0.040275361621752381 0.071131993376184144 0.20216315909055971 0.12483238719869405 0.32899423042545095 0.14065728400601074 0.019771972089074552 0.072808317199815065 0.076925562112592161 0.03999781422317028 0.19626313541084528 0.021777932182885706 0.04077228793175891 0.11004681896883994 0.056627098005264997 0.062575876305345446 0.015817093313671649 0.14953107835026458 0.022147613111883402 0.069219101103954017 0.035939385532401502
leaf_count=1181 17 37 36 5 1 15 288 65 189 49 84 203 124 351 143 29 76 78 39 316 21 50 116 61 86 24 160 22 65 37
internal_value=4.17095e-10 0.0568429 0.0459432 0.0315141 -0.000958071 -0.0723014 -0.0602039 -0.0604718 -0.0612077 -0.0615943 -0.0601707 -0.060114 -0.0602149 -0.060387 -0.060026 -0.0620545 -0.0601619 -0.0601926 -0.060031 -0.062156 -0.0599448 -0.0608974 -0.0603418 -0.0601372 -0.0618135 -0.0612342 -0.0603335 -0.0600691 -0.0602548 -0.0603359
internal_weight=7.44526 3.82953 0.63147 0.272888 0.129171 0.0599411 3.61573 2.42286 0.70345 0.529475 1.71941 1.63246 1.34245 0.702431 0.64002 0.318886 0.437857 0.373437 0.173975 0.278611 0.198375 0.210589 0.239482 0.129435 0.0823478 0.0869491 0.248604 0.0990732 0.109217 0.0577173
internal_count=3968 111 74 57 52 51 3857 2676 888 719 1788 1680 1392 735 657 480 454 384 169 431 201 239 253 137 115 108 260 100 104 58
is_linear=0
shrinkage=0.05


Tree=12
num_leaves=31
num_cat=0
split_feature=46 0 49 5 20 16 42 20 27 0 54 27 0 36 50 50 36 54 0 51 22 0 0 50 52 36 45 22 55 54
split_gain=9.70898 0.0306534 0.0428968 0.0503138 0.18209 0.00016043 0.000162913 0.000133273 9.7435e-05 5.14906e-05 3.15177e-05 2.35251e-05 1.33652e-05 9.22055e-06 7.84104e-06 6.88773e-06 5.23119e-06 4.51019e-06 4.49406e-06 4.15306e-06 3.80613e-06 3.65239e-06 3.61097e-06 4.55272e-06 3.5854e-06 3.56498e-06 3.52915e-06 2.56221e-06 1.86632e-06 1.81925e-06
threshold=0.41450000000000004 0.91750000000000009 6.7500000000000009 0.94100000000000017 6.5000000000000009 0.57500000000000007 1.0000000180025095e-35 4.5000000000000009 0.22500000000000003 0.72750000000000015 0.16030699014663699 0.22500000000000003 0.70850000000000002 1.0000000180025095e-35 0.22500000000000001 0.22500000000000001 1.0000000180025095e-35 0.082955684512853636 0.73150000000000015 0.59102532267570507 1.0000000180025095e-35 0.70450000000000002 0.63650000000000018 0.72500000000000009 0.66012990474700939 0.52000000000000013 55.500000000000007 1.0000000180025095e-35 0.41699841618537908 0.19358267635107043
decision_type=2 2 2 2 2 2 2 2 2 2 2 2 2 2 2 2 2 2 2 2 2 2 2 2 2 2 2 2 2 2
left_child=5 2 3 4 7 -1 10 -2 18 21 11 -7 14 17 -13 -11 20 -14 -8 24 -16 -10 23 -18 -17 29 27 -19 -20 -12
right_child=1 -3 -4 -5 -6 6 8 -9 9 15 25 12 13 -15 16 19 22 26 28 -21 -22 -23 -24 -25 -26 -27 -28 -29 -30 -31
leaf_value=-0.058579745910955099 -0.066034797192613154 0.057818167269210921 0.054032072385282306 0.059502613749523176 0.055125892799233758 -0.058568437128361399 -0.058574278232555524 -0.071282390131592432 -0.059564004439473954 -0.060065306647015142 -0.059481359900910441 -0.058642530195801568 -0.058801433269249505 -0.0594124939949362 -0.05868911774418939 -0.061058311634216871 -0.058736395283304127 -0.058801928247946646 -0.058829210663803637 -0.060894487317256642 -0.059173527213246528 -0.060094109527382866 -0.05939040164142656 -0.059336934208582597 -0.060279215634863818 -0.060645080422847997 -0.059325587526447759 -0.059415324788309833 -0.059260199879061282 -0.060006651777044978
leaf_weight=1.1833038519835102 0.024171670898795461 3.1003858589101583 0.49984379694797099 0.073173195123672485 0.076931256335228682 0.28769372263923321 0.064236801117658504 0.024225596687756479 0.16801852989010513 0.039790013746824116 0.026384455617517122 0.20050727715715744 0.12375931412680075 0.32562661106931046 0.13948885025456548 0.019472241750918329 0.072193287371192127 0.076219808019232005 0.039649569313041866 0.19405461713904515 0.057170676358509809 0.040283812617417425 0.10892844467889518 0.056070839578751475 0.061113829433452338 0.015597634308505803 0.14803807123098522 0.021920572558883578 0.06853801931720227 0.043920604803133756
leaf_count=1181 28 28 26 3 3 288 65 23 189 49 29 203 124 351 143 29 76 78 39 317 58 50 116 61 85 24 160 22 65 55
internal_value=1.39748e-09 0.0556865 0.0462228 0.0265583 0.00732375 -0.0590562 -0.0592912 -0.0686615 -0.0599362 -0.0602762 -0.059028 -0.0589784 -0.0590671 -0.0592185 -0.0589011 -0.0606801 -0.0590206 -0.0590477 -0.0589056 -0.0607692 -0.0588299 -0.0596665 -0.0591787 -0.0589989 -0.0604675 -0.0599612 -0.0591714 -0.0589389 -0.0591022 -0.0598095
internal_weight=7.38071 3.79873 0.698346 0.198502 0.125329 3.58198 2.39868 0.0483973 0.695157 0.522733 1.70352 1.61762 1.32992 0.695564 0.634359 0.314431 0.433852 0.369938 0.172424 0.274641 0.19666 0.208302 0.237193 0.128264 0.0805861 0.0859027 0.246178 0.0981404 0.108188 0.0703051
internal_count=3968 111 83 57 54 3857 2676 51 888 719 1788 1680 1392 735 657 480 454 384 169 431 201 239 253 137 114 108 260 100 104 84
is_linear=0
shrinkage=0.05


Tree=13
num_leaves=31
num_cat=0
split_feature=46 0 5 20 16 42 27 0 54 27 0 36 50 50 36 54 0 51 22 0 0 50 52 36 45 22 55 22 0 54
split_gain=9.24809 0.0299196 0.0391067 0.0393339 0.000122743 0.000124222 7.44995e-05 3.92286e-05 2.40802e-05 1.80747e-05 1.02801e-05 7.08894e-06 6.0179e-06 5.25277e-06 4.01414e-06 3.46361e-06 3.45277e-06 3.15834e-06 2.92523e-06 2.79391e-06 2.77052e-06 3.49906e-06 2.72334e-06 2.71926e-06 2.71216e-06 1.96895e-06 1.43287e-06 1.40558e-06 2.22171e-06 1.39874e-06
threshold=0.41450000000000004 0.90250000000000019 0.75800000000000012 6.5000000000000009 0.57500000000000007 1.0000000180025095e-35 0.22500000000000003 0.72750000000000015 0.16030699014663699 0.22500000000000003 0.70850000000000002 1.0000000180025095e-35 0.22500000000000001 0.22500000000000001 1.0000000180025095e-35 0.082955684512853636 0.73150000000000015 0.59102532267570507 1.0000000180025095e-35 0.70350000000000013 0.63650000000000018 0.72500000000000009 0.66012990474700939 0.52000000000000013 55.500000000000007 1.0000000180025095e-35 0.41699841618537908 1.0000000180025095e-35 0.63450000000000017 0.086211275309324278
decision_type=2 2 2 2 2 2 2 2 2 2 2 2 2 2 2 2 2 2 2 2 2 2 2 2 2 2 2 2 2 2
left_child=4 2 3 -2 -1 8 16 19 9 -6 12 15 27 -9 18 -12 -7 22 -14 -8 21 -16 -15 -10 25 -17 -18 -11 -29 -20
right_child=1 -3 -4 -5 5 6 7 13 23 10 11 -13 14 17 20 24 26 -19 29 -21 -22 -23 -24 -25 -26 -27 -28 28 -30 -31
leaf_value=-0.057641351389856516 0.0074915058086057282 0.056523075765848765 0.052946998851817334 0.053646795075546608 -0.057631340609704575 -0.057636495776645286 -0.058501438317192692 -0.058949966689782418 -0.058724880689190823 -0.057615090555722961 -0.057836910337371122 -0.058375942750188647 -0.057737814413480151 -0.059823633006896651 -0.057779608777346392 -0.057837316660123164 -0.057861428749032245 -0.059679485993524552 -0.057845774660187123 -0.058946610083509446 -0.058356353229220004 -0.058309470877342534 -0.059138810296418598 -0.059460425011871848 -0.058299254351999064 -0.058378610698425482 -0.058241465348005721 -0.057601807907275475 -0.058242967710328823 -0.058359171046599601
leaf_weight=1.1694288252037952 0.11627848970238153 3.1448427892755717 0.42660303856246173 0.076547148637473583 0.28432231175247613 0.063482311670668312 0.160217979864683 0.039212591946125031 0.069265903148334362 0.14402826054720186 0.12226292741252109 0.32138435117667541 0.13782442547380924 0.0191339734592475 0.071325683093164116 0.075285980477929115 0.039163556881248951 0.1907816895400174 0.021324469707906246 0.045184703427366912 0.1073327655903995 0.055326366855297238 0.060166990326251835 0.015349851630162448 0.14607274509035051 0.021625667985063046 0.067638675449416041 0.027744662133045495 0.026336855255067348 0.035111217061057687
leaf_count=1181 47 37 25 2 288 65 182 49 84 147 124 351 143 29 76 78 39 317 21 57 116 61 85 24 160 22 65 28 28 37
internal_value=-3.38294e-09 0.0545447 0.0445006 0.025814 -0.0580604 -0.0582675 -0.0588351 -0.059135 -0.0580363 -0.0579928 -0.058071 -0.0582047 -0.0579246 -0.0594907 -0.05803 -0.058054 -0.0579285 -0.0595693 -0.057862 -0.0585994 -0.0581695 -0.0580111 -0.059304 -0.0588583 -0.0581632 -0.0579581 -0.0581021 -0.0576967 -0.057914 -0.0581652
internal_weight=7.30061 3.76427 0.619429 0.192826 3.53634 2.36691 0.684982 0.514698 1.68192 1.59731 1.31299 0.686632 0.626355 0.309295 0.428245 0.365247 0.170285 0.270083 0.19426 0.205403 0.233985 0.126652 0.079301 0.0846158 0.242984 0.0969116 0.106802 0.19811 0.0540815 0.0564357
internal_count=3968 111 74 49 3857 2676 888 719 1788 1680 1392 735 657 480 454 384 169 431 201 239 253 137 114 108 260 100 104 203 56 58
is_linear=0
shrinkage=0.05


Tree=14
num_leaves=31
num_cat=0
split_feature=46 0 49 40 20 53 16 42 28 27 0 47 0 54 27 0 36 50 22 0 54 36 49 36 50 36 46 0 0 22
split_gain=8.76245 0.0354849 0.0477858 0.103962 0.202021 0.000547978 8.27596e-05 6.63808e-05 4.71834e-05 4.17637e-05 2.35199e-05 2.45568e-05 2.13469e-05 1.82658e-05 1.38412e-05 7.88263e-06 5.43001e-06 4.61805e-06 3.28071e-06 2.65536e-06 2.64915e-06 2.59228e-06 2.07738e-06 2.05491e-06 1.98482e-06 2.18955e-06 2.55629e-05 2.59564e-06 1.68255e-06 1.4636e-06
threshold=0.41450000000000004 0.92300000000000015 6.9500000000000011 0.82500000000000007 6.5000000000000009 0.76599377393722545 0.57500000000000007 1.0000000180025095e-35 58.45000000000001 0.22500000000000003 0.90950000000000009 0.10350000000000001 0.70450000000000002 0.16030699014663699 0.22500000000000003 0.70850000000000002 1.0000000180025095e-35 0.72500000000000009 1.0000000180025095e-35 0.73150000000000015 0.082955684512853636 1.0000000180025095e-35 4.7500000000000009 0.52000000000000013 0.22500000000000001 0.52000000000000013 0.30050000000000004 0.73150000000000015 0.62750000000000006 1.0000000180025095e-35
decision_type=2 2 2 2 2 2 2 2 2 2 2 2 2 2 2 2 2 2 2 2 2 2 2 2 2 2 2 2 2 2
left_child=6 2 3 4 5 8 -1 13 -2 19 12 -12 -11 14 -8 17 20 18 -16 -9 -17 -19 29 -15 -14 27 -27 -26 -20 -22
right_child=1 -3 -4 -5 -6 -7 7 9 -10 10 11 -13 24 23 15 16 -18 21 28 -21 22 -23 -24 -25 25 26 -28 -29 -30 -31
leaf_value=-0.056821124981367127 -0.065055684015322662 0.055661625035838359 0.053786773457481507 0.057753669311829493 0.052270893603515049 -0.072610652348107471 -0.056812312220671769 -0.056816883015801206 -0.061542569555397567 -0.057587573870032542 -0.058459387946279841 -0.054788332151440411 -0.057960721887099526 -0.057776830668549155 -0.05689534617774844 -0.056994195190515129 -0.057470243829917028 -0.057083340029308795 -0.057007643896016404 -0.057228873613498127 -0.057003705852194213 -0.057448725036996356 -0.057405454759318367 -0.058424651636093262 -0.058008790124508741 -0.058754921409509775 -0.056068687765541692 -0.05846822060093522 -0.057401190158698871 -0.0574730580442974
leaf_weight=1.1489535946166145 0.019642160275907705 3.0102229369549605 0.4281725150103739 0.14097460491393576 0.076728279018425383 0.027387780100070813 0.27932082000188563 0.062380369519814738 0.018615401665556419 0.16230934456689283 0.0076039991072320836 0.011362538091816532 0.039860215387307107 0.067740358528680988 0.31147413316648431 0.12010991020360962 0.31491159263532609 0.093698934826534241 0.051754959858953953 0.10484144743531942 0.076681363862007856 0.10072448221035302 0.14039080124348402 0.01494109386112541 0.03629267105134204 0.032169209327548742 0.012221104747368372 0.20104269194416702 0.057148867810610682 0.021202454052399844
leaf_count=1181 17 26 18 4 4 17 288 65 25 189 13 32 49 84 328 124 351 100 54 104 81 113 157 24 46 52 29 309 62 22
internal_value=9.1911e-09 0.053288 0.0432459 0.0273174 -0.00281978 -0.0672114 -0.0571682 -0.05734 -0.0633463 -0.0577597 -0.0579873 -0.0562601 -0.058055 -0.0571696 -0.0571314 -0.0572006 -0.0573188 -0.0570711 -0.0569779 -0.0570752 -0.0571857 -0.0572726 -0.0572822 -0.0578939 -0.058291 -0.0583377 -0.0580154 -0.058398 -0.0572142 -0.0571054
internal_weight=7.19088 3.72174 0.711521 0.283348 0.142374 0.0656453 3.46914 2.32018 0.0382576 0.670084 0.502862 0.0189665 0.483895 1.6501 1.56742 1.2881 0.673296 0.614801 0.420378 0.167222 0.358385 0.194423 0.238275 0.0826815 0.321586 0.281726 0.0443903 0.237335 0.108904 0.0978838
internal_count=3968 111 85 67 63 59 3857 2676 42 888 719 45 674 1788 1680 1392 735 657 444 169 384 213 260 108 485 436 81 355 116 103
is_linear=0
shrinkage=0.05


Tree=15
num_leaves=31
num_cat=0
split_feature=19 46 0 49 40 46 46 46 45 15 16 42 27 1 47 0 27 54 0 36 50 36 45 0 50 28 22 0 50 54
split_gain=8.39571 0.256166 0.0260555 0.0720822 0.243973 0.00652453 0.00071428 0.00054155 0.00024545 7.28513e-05 6.25702e-05 4.91341e-05 3.18709e-05 1.69587e-05 1.90714e-05 1.66219e-05 1.41429e-05 1.53193e-05 6.05862e-06 4.26692e-06 3.60254e-06 2.39246e-06 2.06185e-06 1.94486e-06 1.75684e-06 1.98473e-06 1.75208e-06 1.66979e-06 2.07448e-06 1.45593e-06
threshold=5.5000000000000009 0.47150000000000003 0.92300000000000015 6.9500000000000011 0.82500000000000007 0.43950000000000006 0.41450000000000004 0.56850000000000012 53.500000000000007 65.500000000000014 0.57500000000000007 1.0000000180025095e-35 0.22500000000000003 0.80750000000000022 0.10350000000000001 0.71950000000000014 0.22500000000000003 0.15949596464633944 0.70850000000000002 1.0000000180025095e-35 0.22500000000000001 1.0000000180025095e-35 64.500000000000014 0.73150000000000015 0.22500000000000001 76.850000000000009 1.0000000180025095e-35 0.63650000000000018 0.72500000000000009 0.19756090641021731
decision_type=2 2 2 2 2 2 2 2 2 2 2 2 2 2 2 2 2 2 2 2 2 2 2 2 2 2 2 2 2 2
left_child=1 5 3 4 7 6 10 8 -2 -10 -1 16 23 15 -15 -14 -12 18 20 22 -18 26 -20 -13 -17 29 -22 28 -23 -26
right_child=2 -3 -4 -5 -6 -7 -8 -9 9 -11 11 12 13 14 -16 24 17 -19 19 -21 21 27 -24 -25 25 -27 -28 -29 -30 -31
leaf_value=-0.05609687826147667 -0.064962940516308729 0.030066230825447699 0.056251245893538748 0.056948423748493418 0.056469105187770707 -0.080368177911844252 -0.065285731777192782 -0.07047366159703726 -0.054471821908972012 -0.060017061207456979 -0.056084935157215576 -0.056093008933607837 -0.056815365566644231 -0.057491498600819251 -0.054405781064141838 -0.057106332597244014 -0.056139368184516897 -0.057174032102250097 -0.056294614154391534 -0.056672651154802016 -0.05617205782566001 -0.056205035386160423 -0.05653671773662218 -0.056450298196391149 -0.057549303355242477 -0.056852239265160288 -0.056508474644443168 -0.056658953602906841 -0.056620222683323153 -0.057100835381501285
leaf_weight=1.13094249519054 0.016974282367300808 0.087301004599794285 2.9418628933399305 0.4090692960198794 0.14073021918193263 0.028775703965948085 0.022771305017158627 0.01966832704601984 0.012540932983938546 0.011223804308428953 0.28361460083397139 0.061457961390260496 0.18127485236618668 0.0087133447423184407 0.011773158176765719 0.036479542672168463 0.19177681067958452 0.073761505482252576 0.17224142438499257 0.30990716884844005 0.13334696256788447 0.068980764481239021 0.1796832192922011 0.10016356705455109 0.21164067066274583 0.012029625651848619 0.054528875509276986 0.10354201740119606 0.053357451048213989 0.019789713343925541
leaf_count=1180 15 5 27 9 5 9 17 10 29 16 297 65 217 15 31 46 203 100 184 351 143 76 199 101 326 22 58 116 61 35
internal_value=-4.78353e-09 -0.0545191 0.0543009 0.0448982 0.0203908 -0.0566592 -0.0564598 -0.0636602 -0.0603708 -0.0570908 -0.0564007 -0.0565522 -0.056922 -0.0571259 -0.0557182 -0.0571884 -0.0564057 -0.0564736 -0.0564328 -0.0565374 -0.0563185 -0.0564015 -0.0564182 -0.0563144 -0.0574299 -0.0574784 -0.0562697 -0.0565112 -0.0563861 -0.057511
internal_weight=7.08992 3.53785 3.55207 0.610207 0.201138 3.45055 3.42178 0.0604073 0.040739 0.0237647 3.39901 2.26806 0.643322 0.481701 0.0204865 0.461214 1.62474 1.34113 1.26736 0.661832 0.605533 0.413756 0.351925 0.161622 0.27994 0.24346 0.187876 0.22588 0.122338 0.23143
internal_count=3968 3857 111 84 75 3852 3843 70 60 45 3826 2646 858 692 46 646 1788 1491 1391 734 657 454 383 166 429 383 201 253 137 361
is_linear=0
shrinkage=0.05


Tree=16
num_leaves=31
num_cat=0
split_feature=46 46 9 0 47 52 47 49 16 42 0 27 15 27 54 0 36 46 0 36 50 36 0 45 0 22 0 50 55 55
split_gain=8.08056 0.0364827 0.11049 0.13964 0.194446 0.031089 0.00228166 0.0011405 4.69506e-05 3.3257e-05 2.56582e-05 2.59931e-05 1.1771e-05 1.09781e-05 1.18905e-05 1.05265e-05 5.67717e-06 3.48004e-05 4.72207e-06 3.31718e-06 2.80728e-06 1.86116e-06 1.6041e-06 1.60328e-06 1.49605e-06 1.36303e-06 1.29904e-06 1.61307e-06 1.03256e-06 7.37175e-07
threshold=0.41450000000000004 0.48450000000000004 0.17050000000000001 0.98350000000000015 0.10350000000000001 0.68593549728393566 0.16850000000000004 6.8500000000000005 0.57500000000000007 1.0000000180025095e-35 0.92300000000000015 0.22500000000000003 3.5000000000000004 0.22500000000000003 0.15949596464633944 0.70450000000000002 0.52000000000000013 0.31150000000000005 0.70850000000000002 1.0000000180025095e-35 0.22500000000000001 1.0000000180025095e-35 0.73150000000000015 64.500000000000014 0.78250000000000008 1.0000000180025095e-35 0.63650000000000018 0.72500000000000009 0.36783240735530859 0.41699841618537908
decision_type=2 2 2 2 2 2 2 2 2 2 2 2 2 2 2 2 2 2 2 2 2 2 2 2 2 2 2 2 2 2
left_child=8 2 -2 4 -4 -6 -7 -3 -1 13 11 22 -12 -10 18 -13 24 -18 20 23 -15 25 -11 -20 -17 -22 27 -23 -25 -24
right_child=1 7 3 -5 5 6 -8 -9 9 10 12 15 -14 14 -16 16 17 -19 19 -21 21 26 29 28 -26 -27 -28 -29 -30 -31
leaf_value=-0.055451507091019259 0.054600299129994839 0.054219643521506967 0.056238119114976198 0.05607657086866788 -0.019778013761309832 -0.081099591531494125 -0.062072965113407201 0.056360286841142984 -0.055440890998112592 -0.055448090230566065 -0.05584992441892081 -0.056054760446019758 -0.053210904259404251 -0.055489244813553863 -0.056407614200301409 -0.056509849016274961 -0.056845551806134612 -0.053712021030947937 -0.055627171232064745 -0.055962824053405205 -0.055518289781193032 -0.055547655748517555 -0.055591917087394686 -0.05571040617138226 -0.056747923224430612 -0.055817065654186482 -0.05595071883902164 -0.055916313663673806 -0.055952731888273433 -0.055876617040227373
leaf_weight=1.1170142490882429 0.79336681843233259 1.2509463668502578 0.070580840110778809 0.15026921778917313 0.049526362121468992 0.035219499871345761 0.028513251259937533 1.2380135415751281 0.27941243676468763 0.060651942272670456 0.0070442819815070825 0.15738763695117086 0.010559125313193363 0.18971960264025234 0.072660817007999756 0.11707564553944394 0.034739465229904454 0.011894104794009763 0.16990490769967437 0.30551777698565274 0.13156907237134874 0.068060171732213348 0.035419356485363096 0.080864553863648325 0.15121922380058095 0.053774952364619821 0.10207667015492916 0.052606610232032835 0.096324382815510035 0.063501092896331102
leaf_count=1181 17 30 1 2 8 12 28 13 297 65 13 189 27 203 100 162 59 30 184 351 143 76 37 89 242 58 116 61 110 64
internal_value=2.92642e-09 0.0519044 0.0444429 0.0203233 -0.00890116 -0.0494947 -0.0725873 0.0552844 -0.0557165 -0.055848 -0.0561498 -0.0562023 -0.0542669 -0.0557257 -0.0557858 -0.0563887 -0.0565555 -0.0560463 -0.0557497 -0.0558427 -0.0556482 -0.055722 -0.0556505 -0.0557369 -0.056644 -0.055605 -0.0558194 -0.0557084 -0.0558421 -0.0557747
internal_weight=6.98543 3.61644 1.12748 0.334109 0.18384 0.113259 0.0637328 2.48896 3.369 2.25198 0.649492 0.631888 0.0176034 1.60249 1.32308 0.472316 0.314928 0.0466336 1.25042 0.652612 0.597807 0.408087 0.159572 0.347094 0.268295 0.185344 0.222743 0.120667 0.177189 0.0989204
internal_count=3968 111 68 51 49 48 40 43 3857 2676 888 848 40 1788 1491 682 493 89 1391 734 657 454 166 383 404 201 253 137 199 101
is_linear=0
shrinkage=0.05


Tree=17
num_leaves=31
num_cat=0
split_feature=46 19 0 47 47 0 0 49 16 42 27 0 27 54 0 36 50 50 36 45 0 51 22 0 50 52 0 55 36 9
split_gain=7.86209 0.0515207 0.075872 0.109184 0.216039 0.00205696 0.000966992 7.60695e-05 4.44392e-05 4.50132e-05 2.70891e-05 1.43713e-05 8.66081e-06 9.38593e-06 3.72348e-06 2.61823e-06 2.21154e-06 1.96511e-06 1.46975e-06 1.26489e-06 1.26285e-06 1.25805e-06 1.07275e-06 1.02347e-06 1.27187e-06 1.00365e-06 1.00183e-06 8.13471e-07 5.83347e-07 5.85292e-07
threshold=0.41450000000000004 8.5000000000000018 0.96150000000000013 0.075500000000000012 0.10350000000000001 0.89650000000000019 0.93050000000000022 6.4500000000000011 0.57500000000000007 1.0000000180025095e-35 0.22500000000000003 0.72750000000000015 0.22500000000000003 0.15949596464633944 0.70850000000000002 1.0000000180025095e-35 0.22500000000000001 0.22500000000000001 1.0000000180025095e-35 64.500000000000014 0.73150000000000015 0.5938059687614442 1.0000000180025095e-35 0.63650000000000018 0.72500000000000009 0.66012990474700939 0.70350000000000013 0.36783240735530859 0.52000000000000013 0.26250000000000007
decision_type=2 2 2 2 2 2 2 2 2 2 2 2 2 2 2 2 2 2 2 2 2 2 2 2 2 2 2 2 2 2
left_child=8 2 3 -2 -5 7 -3 -6 -1 12 20 26 -10 14 16 19 -14 -13 22 -16 -11 25 -18 24 -20 -19 -12 -21 29 -23
right_child=1 6 -4 4 5 -7 -8 -9 9 10 11 17 13 -15 15 -17 18 21 23 27 -22 28 -24 -25 -26 -27 -28 -29 -30 -31
leaf_value=-0.054891593129635256 0.052035499272671405 0.053813812186104204 0.052039871005803512 0.055594046209216735 -0.059826001936343902 -0.078519975396752539 0.055671716050762314 -0.063760613388170198 -0.054881994461402767 -0.054888326402090529 -0.055424639017992564 -0.055700548420348828 -0.054925256213055579 -0.055744598451829497 -0.055048136782657922 -0.055347782059193079 -0.054951048300705352 -0.056246628681198556 -0.054977381824495603 -0.055122498481534069 -0.055178015115687366 -0.056250821675580182 -0.055217440948572921 -0.055336916733303758 -0.055306288472941667 -0.05581697571495231 -0.055699755963544109 -0.055338631942596653 -0.056343362721453016 -0.056040488837651753
leaf_weight=1.1061694617383184 0.13156840577721629 1.348949412815273 0.48195902351289988 0.065876759588718414 0.029064121074043214 0.027367241564206779 1.4565871432423589 0.02127719868440181 0.27668775455094907 0.060049478721339145 0.15069832536391914 0.036799621360842139 0.18788975867209934 0.072055646218359359 0.16820147959515452 0.30268205056199804 0.1302775526419282 0.017853869823738933 0.06741240480914712 0.080063144909217954 0.10072374425362796 0.052478861471172422 0.053233871294651181 0.10111378249712288 0.052115454920567572 0.056940410053357482 0.042400427162647247 0.095420651603490114 0.036101382691413164 0.089452363492455333
leaf_count=1181 3 29 7 3 31 10 11 17 297 65 182 49 203 100 184 351 143 29 76 89 104 87 58 116 61 86 57 110 82 147
internal_value=1.53035e-08 0.0516549 0.0400804 0.0191321 -0.0110175 -0.0674869 0.0547784 -0.061489 -0.0551507 -0.0552792 -0.0556319 -0.0558192 -0.0551362 -0.0551899 -0.0551576 -0.0552406 -0.055067 -0.0560419 -0.0551329 -0.0551461 -0.0550698 -0.0560916 -0.0550283 -0.0552198 -0.0551208 -0.0559195 -0.055485 -0.05524 -0.0561639 -0.0561183
internal_weight=6.89947 3.56265 0.757113 0.275154 0.143585 0.0777086 2.80554 0.0503413 3.33682 2.23065 0.643498 0.482725 1.58715 1.31047 1.23841 0.646367 0.592043 0.289627 0.404153 0.343685 0.160773 0.252827 0.183511 0.220642 0.119528 0.0747943 0.193099 0.175484 0.178033 0.141931
internal_count=3968 111 71 64 61 58 40 48 3857 2676 888 719 1788 1491 1391 734 657 480 454 383 169 431 201 253 137 115 239 199 316 234
is_linear=0
shrinkage=0.05


Tree=18
num_leaves=31
num_cat=0
split_feature=46 19 55 15 13 40 16 42 27 0 27 54 0 36 50 50 22 54 0 51 36 0 52 45 0 22 36 9 50 36
split_gain=7.56769 0.0564266 0.0610586 0.0715005 0.170025 0.00132569 3.45906e-05 3.49812e-05 2.10765e-05 1.11625e-05 6.75232e-06 7.30387e-06 2.90528e-06 2.04491e-06 1.72503e-06 1.52421e-06 1.24697e-06 9.87919e-07 9.8496e-07 9.75803e-07 9.57819e-07 7.78829e-07 7.77565e-07 7.50226e-07 6.34438e-07 5.80063e-07 4.51493e-07 4.53239e-07 4.32775e-07 4.29055e-07
threshold=0.41450000000000004 8.5000000000000018 0.54462391138076793 4.5000000000000009 0.32650000000000007 0.80500000000000016 0.57500000000000007 1.0000000180025095e-35 0.22500000000000003 0.72750000000000015 0.22500000000000003 0.15949596464633944 0.70850000000000002 1.0000000180025095e-35 0.72500000000000009 0.22500000000000001 1.0000000180025095e-35 0.082955684512853636 0.73150000000000015 0.5938059687614442 1.0000000180025095e-35 0.70450000000000002 0.66012990474700939 55.500000000000007 0.62750000000000006 1.0000000180025095e-35 0.52000000000000013 0.26250000000000007 0.22500000000000001 0.52000000000000013
decision_type=2 2 2 2 2 2 2 2 2 2 2 2 2 2 2 2 2 2 2 2 2 2 2 2 2 2 2 2 2 2
left_child=6 2 3 -2 -5 -3 -1 10 18 21 -8 12 14 17 16 -11 -12 -14 -9 22 -16 -10 -17 25 28 -19 27 -21 -18 -13
right_child=1 5 -4 4 -6 -7 7 8 9 15 11 29 13 -15 20 19 24 23 -20 26 -22 -23 -24 -25 -26 -27 -28 -29 -30 -31
leaf_value=-0.054384527086591639 0.053676442276378959 0.05306023296126159 0.048090925941448474 -0.068518575897595232 0.047320397373690593 0.055217892350458798 -0.05437597242853294 -0.054381517474768118 -0.054863717918560852 -0.055105214602157185 -0.054430019844584267 -0.055082842426467715 -0.054491078131427784 -0.054791145035924672 -0.054549223329160304 -0.055590853241193575 -0.054360913425682222 -0.054492328314397265 -0.05463970515103244 -0.055594578136795025 -0.054777789691658724 -0.055120756618493763 -0.055208811839303262 -0.054747041741181481 -0.054750478168340146 -0.05479766095125585 -0.055676767607234223 -0.055407617888115726 -0.054658770655841099 -0.055391030814717294
leaf_weight=1.0866363044478933 0.075155427854042833 1.4082564681302758 0.45104421331780031 0.060486954636871815 0.066505849827080965 1.4396664947271345 0.27180860168300602 0.058968702622223534 0.15299771295394748 0.036099187331274152 0.29501641873503082 0.056567128805909195 0.11346873483853415 0.29715915926499292 0.088520695921033621 0.017489580670371652 0.025779023708309978 0.069828390725888312 0.098879181605298072 0.051425779820419848 0.09505239553982392 0.036501161113847047 0.055845509050413966 0.13416469213552773 0.05392882350133732 0.020013073983136564 0.035379578592255712 0.087697952403686941 0.023143455153331161 0.01411031634779647
leaf_count=1181 3 31 26 39 3 9 297 65 189 49 328 76 124 351 100 29 28 78 104 87 113 50 86 159 62 22 82 147 26 24
internal_value=4.98591e-09 0.051111 0.0378569 0.015022 -0.00785396 0.054151 -0.0546152 -0.0547296 -0.0550436 -0.0552104 -0.0546024 -0.0546502 -0.0546215 -0.0546955 -0.0545408 -0.0554088 -0.0544823 -0.0546113 -0.0545433 -0.055453 -0.0546676 -0.0549132 -0.0552999 -0.0546722 -0.0546322 -0.0545603 -0.0555173 -0.0554767 -0.0545018 -0.0551444
internal_weight=6.7776 3.50112 0.653192 0.202148 0.126993 2.84792 3.27648 2.18985 0.631284 0.473436 1.55856 1.28675 1.21607 0.634634 0.581441 0.283938 0.397868 0.337475 0.157848 0.247838 0.183573 0.189499 0.0733351 0.224006 0.102851 0.0898415 0.174503 0.139124 0.0489225 0.0706774
internal_count=3968 111 71 45 42 40 3857 2676 888 719 1788 1491 1391 734 657 480 444 383 169 431 213 239 115 259 116 100 316 234 54 100
is_linear=0
shrinkage=0.05


Tree=19
num_leaves=31
num_cat=0
split_feature=46 19 0 47 47 0 0 49 16 42 27 0 27 54 0 36 50 50 36 54 0 51 22 0 50 0 52 45 22 36
split_gain=7.29212 0.0511653 0.0629116 0.0930682 0.193853 0.00167473 0.00146906 3.32708e-05 2.70242e-05 2.728e-05 1.6454e-05 8.69717e-06 5.28446e-06 5.70259e-06 2.2743e-06 1.60202e-06 1.35461e-06 1.18657e-06 9.01425e-07 7.74852e-07 7.71108e-07 7.59255e-07 6.58062e-07 6.31253e-07 7.76717e-07 6.07612e-07 6.04414e-07 5.87488e-07 4.54218e-07 3.50262e-07
threshold=0.41450000000000004 8.5000000000000018 0.96150000000000013 0.075500000000000012 0.10350000000000001 0.93350000000000011 0.89650000000000019 6.4500000000000011 0.57500000000000007 1.0000000180025095e-35 0.22500000000000003 0.72750000000000015 0.22500000000000003 0.15949596464633944 0.70850000000000002 1.0000000180025095e-35 0.22500000000000001 0.22500000000000001 1.0000000180025095e-35 0.082955684512853636 0.73150000000000015 0.5938059687614442 1.0000000180025095e-35 0.63650000000000018 0.72500000000000009 0.70450000000000002 0.66012990474700939 55.500000000000007 1.0000000180025095e-35 0.52000000000000013
decision_type=2 2 2 2 2 2 2 2 2 2 2 2 2 2 2 2 2 2 2 2 2 2 2 2 2 2 2 2 2 2
left_child=8 2 3 -2 -5 -3 7 -6 -1 12 20 25 -10 14 16 19 -14 -13 22 -16 -11 26 -18 24 -20 -12 -19 28 -21 -23
right_child=1 5 -4 4 6 -7 -8 -9 9 10 11 17 13 -15 15 -17 18 21 23 27 -22 29 -24 -25 -26 -27 -28 -29 -30 -31
leaf_value=-0.05393718407828612 0.050108150697291499 0.052226939936902521 0.051138126317004963 0.054557915561355058 -0.0582100376001954 0.05467303150168773 -0.074164636802604836 -0.060866227716982649 -0.053929535144060618 -0.053934516966082917 -0.054365198952629805 -0.054580635069640331 -0.053963771560403051 -0.054615535759909531 -0.054032222426288329 -0.054300437842694921 -0.053984257351200028 -0.055013562731866354 -0.054005330948126179 -0.05403349192467443 -0.05416513696282102 -0.054911833697342982 -0.05419683597577854 -0.054292406998766432 -0.054267225350084207 -0.054594516937428776 -0.054673100231196849 -0.05426105061069926 -0.054306312398886052 -0.055089932999107229
leaf_weight=1.0663993231719362 0.12664936576038632 1.3336411654017868 0.36790016107261181 0.063854195177555084 0.028850026719737798 1.4721847027540205 0.025187778403051198 0.01993569964542985 0.26675887953024391 0.057872806442901381 0.15006018057465553 0.035381068242713809 0.1811105794040484 0.069261019525583722 0.1113273462979123 0.29143470083363354 0.12556597287766635 0.017111429304350168 0.064971147628966719 0.068514022568706423 0.096994132734835148 0.13624789682216942 0.051270460593514144 0.097363472508732229 0.050173304742202163 0.035772211209405214 0.054729659226723015 0.13158546003978699 0.019626720459200442 0.034621160826645792
leaf_count=1181 3 33 7 3 31 7 10 17 297 65 189 49 203 100 124 351 143 29 76 78 104 234 58 116 61 50 86 159 22 82
internal_value=-8.2525e-09 0.0506147 0.0377667 0.0191665 -0.00926565 0.0535104 -0.0643584 -0.0592955 -0.0541429 -0.0542451 -0.0545252 -0.0546742 -0.0541317 -0.0541745 -0.0541489 -0.0542149 -0.0540767 -0.0548511 -0.0541293 -0.0541397 -0.054079 -0.0548906 -0.0540459 -0.0541987 -0.0541194 -0.0544093 -0.0547542 -0.0541941 -0.0540942 -0.0549479
internal_weight=6.65236 3.4382 0.632377 0.264477 0.137828 2.80583 0.0739735 0.0487857 3.21415 2.14775 0.618791 0.463924 1.52896 1.2622 1.19294 0.622488 0.570455 0.278091 0.389344 0.331054 0.154867 0.24271 0.176836 0.212508 0.115144 0.185832 0.0718411 0.219726 0.0881407 0.170869
internal_count=3968 111 71 64 61 40 58 48 3857 2676 888 719 1788 1491 1391 734 657 480 454 383 169 431 201 253 137 239 115 259 100 316
is_linear=0
shrinkage=0.05


Tree=20
num_leaves=31
num_cat=0
split_feature=46 19 0 47 47 0 19 16 42 49 27 0 27 54 0 36 50 50 36 54 0 51 22 0 50 0 52 45 22 36
split_gain=7.02442 0.0469657 0.0554602 0.0829713 0.17956 0.000903882 0.000766302 2.11213e-05 2.12952e-05 2.06871e-05 1.28574e-05 6.78491e-06 4.13584e-06 4.45647e-06 1.77991e-06 1.25583e-06 1.06069e-06 9.24896e-07 7.05758e-07 6.07117e-07 6.04007e-07 5.91625e-07 5.15321e-07 4.94476e-07 6.08476e-07 4.74909e-07 4.70661e-07 4.60284e-07 3.82127e-07 2.72308e-07
threshold=0.41450000000000004 8.5000000000000018 0.96150000000000013 0.075500000000000012 0.10350000000000001 0.88750000000000007 15.500000000000002 0.57500000000000007 1.0000000180025095e-35 6.2500000000000009 0.22500000000000003 0.72750000000000015 0.22500000000000003 0.15949596464633944 0.70850000000000002 1.0000000180025095e-35 0.22500000000000001 0.22500000000000001 1.0000000180025095e-35 0.082955684512853636 0.73150000000000015 0.5938059687614442 1.0000000180025095e-35 0.63650000000000018 0.72500000000000009 0.70350000000000013 0.66012990474700939 60.500000000000007 1.0000000180025095e-35 0.52000000000000013
decision_type=2 2 2 2 2 2 2 2 2 2 2 2 2 2 2 2 2 2 2 2 2 2 2 2 2 2 2 2 2 2
left_child=7 2 3 -2 -5 9 -3 -1 12 -6 20 25 -9 14 16 19 -14 -13 22 -16 -10 26 -18 24 -20 -12 -19 28 -21 -23
right_child=1 6 -4 4 5 -7 -8 8 10 -11 11 17 13 -15 15 -17 18 21 23 27 -22 29 -24 -25 -26 -27 -28 -29 -30 -31
leaf_value=-0.053537465298659583 0.049201636854445896 0.052128012306285748 0.050322633529653882 0.054105694341293947 -0.057363662961213216 -0.070140155360953679 0.053797101038423223 -0.053530621026994088 -0.053535027585851283 -0.059528653170847184 -0.053916725186084549 -0.054112613849421176 -0.053561227093033292 -0.054143794199900078 -0.053622393172620512 -0.053862295854100017 -0.053579557151457617 -0.054499056271217164 -0.053598373394928456 -0.053628784254206557 -0.05374127412503657 -0.054408295297573989 -0.053769662478323869 -0.053855129431249565 -0.053832630414097693 -0.054111987636665852 -0.054195211235421495 -0.053831515352337204 -0.053868342600234514 -0.054567121762838844
leaf_weight=1.0444960874738174 0.12500905524939332 1.399258708348498 0.36241281218826771 0.062429480254650116 0.026380855706520379 0.024807550711557269 1.3522327323444185 0.26130315702175755 0.056688026583287754 0.018966737319715321 0.14198917965404689 0.034615909738931805 0.17739676166092955 0.067754996998701134 0.10911248106276616 0.28528458013897762 0.12298511288827285 0.016727176262065768 0.063632949022576213 0.072184269840363413 0.094967658224049956 0.13322163367411122 0.050197342992760241 0.095309249183628708 0.049117135524284095 0.039887299644760787 0.053537752712145448 0.12129243119852617 0.021636145014781505 0.033842575852759182
leaf_count=1181 3 29 7 3 29 12 11 297 65 17 182 49 203 100 124 351 143 29 76 84 104 234 58 116 61 57 86 150 25 82
internal_value=-2.93062e-09 0.050147 0.0377151 0.0199775 -0.00757691 -0.0624669 0.0529483 -0.0537212 -0.0538125 -0.0582692 -0.0540628 -0.054196 -0.0537114 -0.0537496 -0.0537267 -0.0537858 -0.0536622 -0.0543541 -0.0537092 -0.0537185 -0.0536642 -0.0543893 -0.0536347 -0.0537713 -0.0537004 -0.0539595 -0.0542675 -0.0537672 -0.053684 -0.0544405
internal_weight=6.51868 3.3715 0.620006 0.257594 0.132585 0.0701551 2.75149 3.14718 2.10268 0.0453476 0.605477 0.453822 1.49721 1.2359 1.16815 0.60951 0.558639 0.271945 0.381242 0.324225 0.151656 0.237329 0.173182 0.208059 0.11275 0.181876 0.0702649 0.215113 0.0938204 0.167064
internal_count=3968 111 71 64 61 58 40 3857 2676 46 888 719 1788 1491 1391 734 657 480 454 383 169 431 201 253 137 239 115 259 109 316
is_linear=0
shrinkage=0.05


Tree=21
num_leaves=31
num_cat=0
split_feature=46 19 0 47 47 46 0 16 42 49 27 0 27 54 0 36 50 50 22 45 0 51 36 0 52 55 0 36 9 50
split_gain=6.76344 0.0443695 0.0500086 0.0753666 0.168113 0.00116449 0.000645507 1.65393e-05 1.6657e-05 1.57767e-05 1.00663e-05 5.3045e-06 3.24315e-06 3.48832e-06 1.39613e-06 9.85408e-07 8.31844e-07 7.22552e-07 6.06721e-07 4.7657e-07 4.73566e-07 4.61939e-07 4.59745e-07 3.71715e-07 3.67446e-07 3.09239e-07 3.07804e-07 2.12877e-07 2.18255e-07 2.10014e-07
threshold=0.41450000000000004 8.5000000000000018 0.96150000000000013 0.075500000000000012 0.10350000000000001 0.60550000000000004 0.88750000000000007 0.57500000000000007 1.0000000180025095e-35 6.2500000000000009 0.22500000000000003 0.72750000000000015 0.22500000000000003 0.15949596464633944 0.70850000000000002 1.0000000180025095e-35 0.72500000000000009 0.22500000000000001 1.0000000180025095e-35 64.500000000000014 0.73150000000000015 0.5938059687614442 1.0000000180025095e-35 0.70350000000000013 0.66012990474700939 0.36783240735530859 0.62750000000000006 0.52000000000000013 0.26250000000000007 0.22500000000000001
decision_type=2 2 2 2 2 2 2 2 2 2 2 2 2 2 2 2 2 2 2 2 2 2 2 2 2 2 2 2 2 2
left_child=7 2 3 -2 -5 -3 9 -1 12 -6 20 23 -9 14 16 19 18 -13 -14 -16 -10 24 -18 -12 -19 -21 29 28 -23 -20
right_child=1 5 -4 4 6 -7 -8 8 10 -11 11 17 13 -15 15 -17 22 21 26 25 -22 27 -24 -25 -26 -27 -28 -29 -30 -31
leaf_value=-0.053181478656507478 0.048316384032518311 0.051409594605228773 0.049521022841353998 0.05370910335215065 -0.056592171799479424 0.053488401643897593 -0.067691127528253722 -0.053175328323260412 -0.053179262208739655 -0.05851337066187845 -0.053521106678336573 -0.053696453501120948 -0.053213699642157233 -0.053724335959235571 -0.053280927454531918 -0.053472429972611091 -0.053299503602885816 -0.054042084740766917 -0.053164337635553463 -0.053328203464645278 -0.053363965643794267 -0.054045474626109716 -0.0534629362380631 -0.053695889028195554 -0.053770370304375086 -0.053466950985770811 -0.053444264213565351 -0.054102918039822583 -0.053911264859060108 -0.053378405574089932
leaf_weight=1.0213573284563611 0.12328128749504719 1.3662505401298406 0.35670120920985937 0.060933414846658707 0.025617302744649351 1.3289451277814803 0.023279296699911356 0.25552027358207885 0.055432853579986729 0.01833353255642578 0.13874469342408702 0.033813959453254938 0.27722002111840971 0.066173901548609027 0.15509441535687074 0.27884425414958969 0.083150842401664704 0.016328015422914177 0.024234223878011107 0.073922936222516 0.09280005720211193 0.048043335613328964 0.089183434844017029 0.038962061342317611 0.05228691833326593 0.087924444524105638 0.050625709176529199 0.03307612770004198 0.081987783662043512 0.021731527463998646
leaf_count=1181 3 27 7 3 29 13 12 297 65 17 182 49 328 100 184 351 100 29 28 89 104 87 113 57 86 110 62 82 147 26
internal_value=1.07072e-08 0.049682 0.0374829 0.0204056 -0.00644191 0.0524346 -0.0609592 -0.0533459 -0.0534277 -0.0573936 -0.0536516 -0.0537709 -0.0533372 -0.0533714 -0.0533509 -0.0534039 -0.0532932 -0.0539124 -0.0532513 -0.0533436 -0.0532949 -0.0539439 -0.0533841 -0.0535594 -0.053835 -0.0534036 -0.0533592 -0.0539897 -0.0539609 -0.0532655
internal_weight=6.3798 3.30334 0.608146 0.251445 0.128164 2.6952 0.0672301 3.07646 2.0551 0.0439508 0.591476 0.443243 1.46363 1.20811 1.14193 0.595786 0.546146 0.265536 0.373811 0.316942 0.148233 0.231722 0.172334 0.177707 0.0686149 0.161847 0.0965915 0.163107 0.130031 0.0459658
internal_count=3968 111 71 64 61 40 58 3857 2676 46 888 719 1788 1491 1391 734 657 480 444 383 169 431 213 239 115 199 116 316 234 54
is_linear=0
shrinkage=0.05


Tree=22
num_leaves=31
num_cat=0
split_feature=46 0 5 34 40 5 49 16 42 27 0 27 54 0 36 50 50 36 54 0 51 22 0 50 0 52 45 22 36 9
split_gain=6.50881 0.0473136 0.064172 0.0979346 0.179634 0.0010117 1.98177e-05 1.29651e-05 1.30433e-05 7.88742e-06 4.15098e-06 2.54527e-06 2.73368e-06 1.09576e-06 7.73631e-07 6.54499e-07 5.65078e-07 4.35927e-07 3.75351e-07 3.71648e-07 3.6113e-07 3.18205e-07 3.06601e-07 3.74808e-07 2.91289e-07 2.89783e-07 2.83602e-07 2.20688e-07 1.66774e-07 1.67874e-07
threshold=0.41450000000000004 0.89850000000000019 0.94100000000000017 0.85000000000000009 0.82500000000000007 0.64150000000000007 6.5500000000000007 0.57500000000000007 1.0000000180025095e-35 0.22500000000000003 0.72750000000000015 0.22500000000000003 0.15949596464633944 0.70850000000000002 1.0000000180025095e-35 0.22500000000000001 0.22500000000000001 1.0000000180025095e-35 0.082955684512853636 0.73150000000000015 0.59102532267570507 1.0000000180025095e-35 0.63650000000000018 0.72500000000000009 0.70450000000000002 0.66012990474700939 55.500000000000007 1.0000000180025095e-35 0.52000000000000013 0.26250000000000007
decision_type=2 2 2 2 2 2 2 2 2 2 2 2 2 2 2 2 2 2 2 2 2 2 2 2 2 2 2 2 2 2
left_child=7 2 3 4 5 6 -2 -1 11 19 24 -9 13 15 18 -13 -12 21 -15 -10 25 -17 23 -19 -11 -18 27 -20 29 -22
right_child=1 -3 -4 -5 -6 -7 -8 8 9 10 16 12 -14 14 -16 17 20 22 26 -21 28 -23 -24 -25 -26 -27 -28 -29 -30 -31
leaf_value=-0.052863868969765186 -0.055397052012078098 0.051813771915315478 0.053423070293171171 0.050494902884524497 0.05335469786236683 -0.067945275013122045 -0.057645721990218848 -0.052858347135241096 -0.052861863643369339 -0.053171117674001671 -0.053325545420583577 -0.052882846881461422 -0.053350523588108982 -0.052931901821098221 -0.053124790243639322 -0.052897550298889665 -0.053635107457876689 -0.052912700597535806 -0.052932842618694825 -0.053027494813453459 -0.053636739484209585 -0.053050486255201507 -0.053119390272492212 -0.053100925884245455 -0.053335565020152458 -0.053390403634987461 -0.053096567319507883 -0.053129648449340275 -0.053689464807023128 -0.053517951857149505
leaf_weight=0.99716407165396992 0.020900312403682952 2.7307642670348287 0.24554676562547684 0.12090834497939795 0.060225546360015869 0.03728807158768177 0.018445285269990563 0.24947029078612137 0.054100910841952898 0.14003115484956652 0.032980500312987715 0.16933973517734535 0.064537986763752886 0.10416176030412316 0.27208654745481908 0.11738912365399301 0.015915106923785061 0.060734890517778695 0.064009720750618726 0.090558797644916922 0.047367637977004051 0.047885796055197716 0.090910761966370046 0.046849382924847305 0.033339777728542686 0.050450479728169739 0.12285037693800405 0.018321533629205078 0.032236602273769677 0.079934893292374909
leaf_count=1181 24 39 5 10 1 16 16 297 65 189 49 203 100 124 351 143 29 76 78 104 88 58 116 61 50 85 159 22 82 147
internal_value=4.96333e-09 0.0492174 0.0351307 0.0177055 -0.0112622 -0.062044 -0.0564512 -0.0530112 -0.0530845 -0.0532851 -0.0533921 -0.0530034 -0.0530341 -0.0530158 -0.0530633 -0.052964 -0.0535189 -0.0530018 -0.0530092 -0.0529656 -0.0535471 -0.0529419 -0.0530518 -0.0529947 -0.0532027 -0.0534491 -0.0530484 -0.0529766 -0.0535879 -0.0535622
internal_weight=6.23671 3.23408 0.503314 0.257768 0.136859 0.0766337 0.0393456 3.00263 2.00546 0.576916 0.432256 1.42855 1.17908 1.11454 0.58143 0.53311 0.258885 0.36377 0.309343 0.14466 0.225905 0.165275 0.198495 0.107584 0.173371 0.0663656 0.205182 0.0823313 0.159539 0.127303
internal_count=3968 111 72 67 57 56 40 3857 2676 888 719 1788 1491 1391 734 657 480 454 383 169 431 201 253 137 239 114 259 100 317 235
is_linear=0
shrinkage=0.05


Tree=23
num_leaves=31
num_cat=0
split_feature=46 19 55 15 13 46 16 42 27 0 27 54 0 36 50 50 36 54 0 51 22 0 50 0 52 45 22 36 9 55
split_gain=6.27321 0.0452501 0.0490471 0.0611038 0.129345 0.00140952 1.01859e-05 1.02378e-05 6.19487e-06 3.25703e-06 2.0013e-06 2.14682e-06 8.61721e-07 6.08287e-07 5.14751e-07 4.43265e-07 3.42678e-07 2.95078e-07 2.92196e-07 2.83228e-07 2.50264e-07 2.41169e-07 2.94664e-07 2.28765e-07 2.27194e-07 2.23085e-07 1.7348e-07 1.30737e-07 1.31563e-07 1.29429e-07
threshold=0.41450000000000004 8.5000000000000018 0.54462391138076793 4.5000000000000009 0.32650000000000007 0.62500000000000011 0.57500000000000007 1.0000000180025095e-35 0.22500000000000003 0.72750000000000015 0.22500000000000003 0.15949596464633944 0.70850000000000002 1.0000000180025095e-35 0.22500000000000001 0.22500000000000001 1.0000000180025095e-35 0.082955684512853636 0.73150000000000015 0.59102532267570507 1.0000000180025095e-35 0.63650000000000018 0.72500000000000009 0.70450000000000002 0.66012990474700939 55.500000000000007 1.0000000180025095e-35 0.52000000000000013 0.26250000000000007 0.41699841618537908
decision_type=2 2 2 2 2 2 2 2 2 2 2 2 2 2 2 2 2 2 2 2 2 2 2 2 2 2 2 2 2 2
left_child=6 2 3 -2 -5 -3 -1 10 18 23 -8 12 14 17 -12 -11 20 -14 -9 24 -16 22 -18 -10 -17 26 -19 28 -21 -20
right_child=1 5 -4 4 -6 -7 7 8 9 15 11 -13 13 -15 16 19 21 25 29 27 -22 -23 -24 -25 -26 -27 -28 -29 -30 -31
leaf_value=-0.0525789053367429 0.05179704918063989 0.050539000671968384 0.046169709332703597 -0.064015674397111338 0.042162953598321506 0.052877476153032545 -0.052573955056470625 -0.052577134709354711 -0.052854722186312909 -0.052993273984545425 -0.052595947953056901 -0.053015688196029587 -0.052640005010073043 -0.05281315435232932 -0.05260916597062032 -0.05327094636148462 -0.052622760249045233 -0.052640842237077767 -0.052646424695288033 -0.053272404511793249 -0.052746470267899498 -0.052808310033135401 -0.052791720102204544 -0.053002299400564883 -0.053051480787512588 -0.052787828588645481 -0.052817505828234572 -0.053319694473677272 -0.053165884718715022 -0.052771939578039162
leaf_weight=0.97318518790416431 0.070241367677226996 1.3069550460204484 0.39793114457279444 0.05375961831305176 0.061488690786063671 1.2710768650285897 0.24347720009973262 0.05280130880419176 0.1365864792605862 0.032157616398762912 0.1652638303930869 0.062928451632615068 0.10164186364272609 0.26541792176431045 0.11456083325902 0.015510816476307809 0.059269845893140882 0.06246328994166106 0.032476713473442942 0.046159829013049603 0.046722061582840979 0.088694025645963848 0.045702837756834924 0.032510162913240492 0.049190674035344273 0.11984566389583051 0.017872209544293582 0.031416313897352666 0.077921090356539935 0.055877642123959959
leaf_count=1181 3 29 26 39 3 11 297 65 189 49 203 100 124 351 143 29 76 78 39 88 58 116 61 50 85 159 22 82 147 65
internal_value=3.29115e-09 0.0488463 0.0362718 0.0150379 -0.00736595 0.051692 -0.0527111 -0.0527768 -0.0529569 -0.0530529 -0.0527042 -0.0527317 -0.0527153 -0.0527579 -0.0526688 -0.0531667 -0.0527028 -0.0527094 -0.0526702 -0.053192 -0.0526489 -0.0527476 -0.0526963 -0.0528831 -0.0531041 -0.0527446 -0.0526801 -0.0532286 -0.0532055 -0.0527258
internal_weight=6.09111 3.16145 0.583421 0.18549 0.115248 2.57803 2.92965 1.95647 0.562609 0.421453 1.39386 1.15038 1.08745 0.567241 0.520213 0.252356 0.35495 0.301823 0.141156 0.220199 0.161283 0.193667 0.104973 0.169097 0.0647015 0.200181 0.0803355 0.155497 0.124081 0.0883544
internal_count=3968 111 71 45 42 40 3857 2676 888 719 1788 1491 1391 734 657 480 454 383 169 431 201 253 137 239 114 259 100 317 235 104
is_linear=0
shrinkage=0.05


Tree=24
num_leaves=31
num_cat=0
split_feature=46 0 15 15 13 13 16 42 27 0 27 54 0 36 50 50 22 45 0 36 51 0 52 55 0 50 36 9 55 36
split_gain=6.04041 0.0442933 0.0619262 0.0535334 0.155331 0.000758896 8.00658e-06 8.0381e-06 4.86844e-06 2.55596e-06 1.57505e-06 1.68731e-06 6.78643e-07 4.79002e-07 4.05113e-07 3.47684e-07 2.96954e-07 2.32689e-07 2.30053e-07 2.232e-07 2.22015e-07 1.79709e-07 1.78111e-07 1.50842e-07 1.50406e-07 1.02748e-07 1.02285e-07 1.03023e-07 1.01872e-07 1.0177e-07
threshold=0.41450000000000004 0.91750000000000009 41.500000000000007 44.500000000000007 0.86150000000000004 0.57700000000000007 0.57500000000000007 1.0000000180025095e-35 0.22500000000000003 0.72750000000000015 0.22500000000000003 0.15949596464633944 0.70850000000000002 1.0000000180025095e-35 0.72500000000000009 0.22500000000000001 1.0000000180025095e-35 64.500000000000014 0.73150000000000015 1.0000000180025095e-35 0.59102532267570507 0.70350000000000013 0.66012990474700939 0.36783240735530859 0.62750000000000006 0.22500000000000001 0.52000000000000013 0.26250000000000007 0.41699841618537908 0.52000000000000013
decision_type=2 2 2 2 2 2 2 2 2 2 2 2 2 2 2 2 2 2 2 2 2 2 2 2 2 2 2 2 2 2
left_child=6 2 -2 -4 5 -5 -1 10 18 21 -8 12 14 17 16 -11 -12 -14 -9 -16 22 -10 -17 -19 25 -18 27 -22 -20 -13
right_child=1 -3 3 4 -6 -7 7 8 9 15 11 29 13 -15 19 20 24 23 28 -21 26 -23 -24 -25 -26 -27 -28 -29 -30 -31
leaf_value=-0.052325764851605866 0.04675316648988833 0.051383207401567738 0.05014236784878412 -0.055381898597204132 0.052772746027465289 -0.066306628485123822 -0.052321308038998177 -0.052324141964499908 -0.052571451486532896 -0.05269806350728367 -0.052348935855869298 -0.052686074538513199 -0.05239761987544668 -0.05253632667185637 -0.05241126083129849 -0.052947328452378387 -0.052313244507022932 -0.052431934608888911 -0.052386436382910552 -0.052529485573680479 -0.052948598957474349 -0.052697726952605842 -0.05275035401193448 -0.052532541415546453 -0.052516397351345549 -0.052468652196867541 -0.052990975526711254 -0.052853046622051363 -0.052499247646183467 -0.05284739755879593
leaf_weight=0.94843666825909179 0.42321042582625557 2.4867446592543274 0.06054346461314708 0.0305585702881217 0.056592047214508057 0.033131272532045841 0.23729452223051328 0.051459479320328794 0.1286147374776192 0.031309439975302666 0.25738470995565854 0.049062074162065872 0.14397837873548269 0.25853421620558947 0.077170856005977839 0.015093579888343811 0.022505433764308691 0.068587816145736724 0.031646120769437402 0.08271084021544084 0.044916862243553624 0.036079357261769474 0.047890711459331214 0.081560750724747777 0.046927993651479483 0.02016580943018198 0.030568116606445983 0.075837354816030711 0.054434931138530374 0.012208950822241604
leaf_count=1181 29 28 3 37 2 12 297 65 182 49 328 76 184 351 100 29 28 89 39 113 88 57 85 110 62 26 82 147 65 24
internal_value=-1.01041e-09 0.0484332 0.0362885 0.0117964 -0.00750484 -0.0610649 -0.0524445 -0.0525035 -0.0526652 -0.0527515 -0.0524383 -0.0524631 -0.0524484 -0.0524867 -0.0524066 -0.0528537 -0.0523762 -0.052443 -0.0524078 -0.0524724 -0.0528764 -0.0525991 -0.0527976 -0.0524866 -0.0524546 -0.0523867 -0.0529093 -0.0528886 -0.0524578 -0.0527182
internal_weight=5.94516 3.09078 0.604036 0.180825 0.120282 0.0636898 2.85438 1.90594 0.547851 0.41031 1.35809 1.1208 1.05953 0.552661 0.506866 0.245616 0.346984 0.294127 0.137541 0.159882 0.214307 0.164694 0.0629843 0.150149 0.0895992 0.0426712 0.151322 0.120754 0.0860811 0.061271
internal_count=3968 111 83 54 51 49 3857 2676 888 719 1788 1491 1391 734 657 480 444 383 169 213 431 239 114 199 116 54 317 235 104 100
is_linear=0
shrinkage=0.05


Tree=25
num_leaves=31
num_cat=0
split_feature=46 19 0 47 47 0 11 16 42 33 27 0 27 54 0 36 50 50 36 45 0 51 22 0 50 0 52 55 54 55
split_gain=5.81339 0.0458078 0.0512132 0.0748054 0.15148 0.000875229 0.000792489 6.29666e-06 6.31568e-06 4.74187e-06 3.82828e-06 2.00769e-06 1.23975e-06 1.32688e-06 5.34168e-07 3.77914e-07 3.19489e-07 2.72939e-07 2.13164e-07 1.83687e-07 1.81123e-07 1.74219e-07 1.55208e-07 1.50329e-07 1.82806e-07 1.41312e-07 1.38558e-07 1.18698e-07 8.02917e-08 8.01905e-08
threshold=0.41450000000000004 8.5000000000000018 0.96150000000000013 0.075500000000000012 0.10350000000000001 0.90950000000000009 0.16150000000000003 0.57500000000000007 1.0000000180025095e-35 75.000000000000014 0.22500000000000003 0.72750000000000015 0.22500000000000003 0.15949596464633944 0.70850000000000002 1.0000000180025095e-35 0.22500000000000001 0.22500000000000001 1.0000000180025095e-35 64.500000000000014 0.73150000000000015 0.5938059687614442 1.0000000180025095e-35 0.63650000000000018 0.72500000000000009 0.70450000000000002 0.66012990474700939 0.36783240735530859 0.15457262843847278 0.41699841618537908
decision_type=2 2 2 2 2 2 2 2 2 2 2 2 2 2 2 2 2 2 2 2 2 2 2 2 2 2 2 2 2 2
left_child=7 2 3 -2 -5 9 -3 -1 12 -6 20 25 -9 14 16 19 -14 -13 22 -16 -10 26 -18 24 -20 28 -19 -21 -12 -22
right_child=1 6 -4 4 5 -7 -8 8 10 -11 11 17 13 -15 15 -17 18 21 23 27 29 -23 -24 -25 -26 -27 -28 -29 -30 -31
leaf_value=-0.052098195506324496 0.046600758702541954 0.050114901594415187 0.048027129610586548 0.052531548118775862 -0.05570630587477942 -0.066950332953025105 0.051912569007887759 -0.052094192573888559 -0.052096720634626614 -0.054649364341549669 -0.052307361084754145 -0.05243301544621233 -0.052111916913008108 -0.052451137392446112 -0.052162720305037505 -0.052287634679171441 -0.052122584389082308 -0.052657002952326851 -0.052133590853044101 -0.052193712156844485 -0.05215276308073391 -0.052622962164778714 -0.052233666802790103 -0.052283895069567703 -0.052270273604266407 -0.05244033433123875 -0.052481008272851404 -0.052284192666919964 -0.0524337431361293 -0.05225423239410211
leaf_weight=0.9229709086357617 0.11445887852460179 1.2582384473644199 0.32690337859094143 0.054582890123128891 0.017382411751896143 0.023699961486272514 1.1956629436463115 0.23094362154370163 0.050080120156053565 0.027243826771155 0.1153026940592099 0.030445521726505831 0.15673759113997199 0.059581322886515298 0.14008637354709208 0.2515594566357322 0.10864143277285621 0.014669133583083749 0.056204993335995823 0.066735214903019369 0.030794276099186391 0.14658617341774516 0.044255622837226838 0.084059391461778432 0.043314861599355936 0.030778104468481615 0.04706332998466678 0.079340720141772181 0.014104532718192786 0.052954133658204228
leaf_count=1181 3 29 7 3 18 7 11 297 65 33 166 49 203 100 184 351 143 29 76 89 39 316 58 116 61 50 86 110 23 65
internal_value=6.72935e-10 0.048037 0.0351915 0.0175142 -0.00957264 -0.059185 0.0509908 -0.0522049 -0.052258 -0.0550611 -0.0524034 -0.052481 -0.0521994 -0.0522217 -0.0522085 -0.0522429 -0.0521709 -0.0525729 -0.0521983 -0.0522036 -0.0521719 -0.0525933 -0.0521547 -0.0522347 -0.0521931 -0.052344 -0.0525228 -0.0522429 -0.0523211 -0.0522169
internal_weight=5.79538 3.01817 0.564271 0.237368 0.122909 0.0683262 2.4539 2.77721 1.85424 0.0446262 0.532778 0.398949 1.32146 1.09052 1.03094 0.537722 0.493214 0.238764 0.336476 0.286162 0.133829 0.208319 0.152897 0.183579 0.0995199 0.160185 0.0617325 0.146076 0.129407 0.0837484
internal_count=3968 111 71 64 61 58 40 3857 2676 51 888 719 1788 1491 1391 734 657 480 454 383 169 431 201 253 137 239 115 199 189 104
is_linear=0
shrinkage=0.05


Tree=26
num_leaves=31
num_cat=0
split_feature=46 40 45 15 46 16 42 27 0 27 54 0 36 50 50 36 54 0 51 22 0 50 0 52 45 22 36 9 36 55
split_gain=5.59249 0.0463392 0.0504535 0.0360861 0.00674306 4.9525e-06 4.96346e-06 3.01088e-06 1.57748e-06 9.7613e-07 1.04355e-06 4.20717e-07 2.97651e-07 2.51532e-07 2.14353e-07 1.67852e-07 1.45024e-07 1.42642e-07 1.3681e-07 1.22225e-07 1.18407e-07 1.43949e-07 1.11157e-07 1.09738e-07 1.09177e-07 8.51089e-08 6.32089e-08 6.37266e-08 6.31294e-08 6.31288e-08
threshold=0.41450000000000004 0.65500000000000014 83.500000000000014 12.500000000000002 0.58400000000000007 0.57500000000000007 1.0000000180025095e-35 0.22500000000000003 0.72750000000000015 0.22500000000000003 0.15949596464633944 0.70850000000000002 1.0000000180025095e-35 0.22500000000000001 0.22500000000000001 1.0000000180025095e-35 0.082955684512853636 0.73150000000000015 0.59102532267570507 1.0000000180025095e-35 0.63650000000000018 0.72500000000000009 0.70350000000000013 0.66012990474700939 55.500000000000007 1.0000000180025095e-35 0.52000000000000013 0.26250000000000007 0.52000000000000013 0.41699841618537908
decision_type=2 2 2 2 2 2 2 2 2 2 2 2 2 2 2 2 2 2 2 2 2 2 2 2 2 2 2 2 2 2
left_child=5 2 3 -2 -3 -1 9 17 22 -7 11 13 16 -11 -10 19 -13 -8 23 -15 21 -17 -9 -16 25 -18 27 -20 -12 -19
right_child=1 4 -4 -5 -6 6 7 8 14 10 28 12 -14 15 18 20 24 29 26 -21 -22 -23 -24 -25 -26 -27 -28 -29 -30 -31
leaf_value=-0.051893616549583556 0.038791249872417499 0.047139843836176837 0.046126063624843165 -0.0054823477199342193 0.052550505883366239 -0.051889999139044109 -0.051892268076337005 -0.052092494327863059 -0.052194928761820372 -0.051905960354043518 -0.05218518332803377 -0.051937885876727499 -0.052064143376925831 -0.051915558299808873 -0.052396365813602332 -0.051925466942768575 -0.051938630473961668 -0.051942729143167658 -0.052397448386949264 -0.052015554989528312 -0.052060772856508092 -0.052048506968329203 -0.052194679389512638 -0.052237200024015606 -0.05204575918375564 -0.052067778395214918 -0.052431712042929263 -0.05232008257189668 -0.052315936046289813 -0.05203405600315425
leaf_weight=0.89713738922728237 0.080100519000552928 0.92888525943271849 0.31203884549904615 0.10818776674568653 1.5150194875895975 0.22447273251600552 0.048678427236154787 0.1215449868759606 0.029570015205536038 0.15234666247852124 0.0463375040271784 0.093769868544768542 0.2444009572500363 0.1055941465892829 0.014239906799048185 0.05462721484946087 0.057563885056879371 0.029928555304650217 0.042375649354653433 0.04300313035491854 0.08167070453055203 0.042085271503310651 0.034074586612405255 0.045213233330287039 0.11037959170062095 0.016388651041779667 0.028842101426562294 0.071575717360246927 0.01152810241910629 0.051453003718052059
leaf_count=1181 3 38 15 42 13 297 65 182 49 203 76 124 351 143 29 76 78 39 88 58 116 61 57 85 159 22 82 147 24 65
internal_value=1.87299e-08 0.0476558 0.0337923 0.0133523 0.050494 -0.0519896 -0.0520374 -0.0521681 -0.052238 -0.0519847 -0.0520048 -0.0519929 -0.0520239 -0.051959 -0.0523207 -0.0519837 -0.0519885 -0.05196 -0.0523391 -0.0519445 -0.0520164 -0.051979 -0.0521149 -0.0522753 -0.0520143 -0.0519673 -0.0523656 -0.0523489 -0.0522112 -0.0520005
internal_weight=5.64303 2.94423 0.500327 0.188288 2.4439 2.6988 1.80166 0.517496 0.387436 1.28417 1.0597 1.00183 0.522503 0.479327 0.231817 0.32698 0.278102 0.13006 0.202247 0.148597 0.178383 0.0967125 0.15562 0.0594531 0.184332 0.0739525 0.142793 0.113951 0.0578656 0.0813816
internal_count=3968 111 60 45 51 3857 2676 888 719 1788 1491 1391 734 657 480 454 383 169 431 201 253 137 239 114 259 100 317 235 100 104
